{
  "learner": {
    "attributes": { "scikit_learn": "{\"_estimator_type\": \"classifier\"}" },
    "feature_names": [],
    "feature_types": [],
    "gradient_booster": {
      "model": {
        "gbtree_model_param": { "num_parallel_tree": "1", "num_trees": "200" },
        "iteration_indptr": [
          0, 1, 2, 3, 4, 5, 6, 7, 8, 9, 10, 11, 12, 13, 14, 15, 16, 17, 18, 19,
          20, 21, 22, 23, 24, 25, 26, 27, 28, 29, 30, 31, 32, 33, 34, 35, 36,
          37, 38, 39, 40, 41, 42, 43, 44, 45, 46, 47, 48, 49, 50, 51, 52, 53,
          54, 55, 56, 57, 58, 59, 60, 61, 62, 63, 64, 65, 66, 67, 68, 69, 70,
          71, 72, 73, 74, 75, 76, 77, 78, 79, 80, 81, 82, 83, 84, 85, 86, 87,
          88, 89, 90, 91, 92, 93, 94, 95, 96, 97, 98, 99, 100, 101, 102, 103,
          104, 105, 106, 107, 108, 109, 110, 111, 112, 113, 114, 115, 116, 117,
          118, 119, 120, 121, 122, 123, 124, 125, 126, 127, 128, 129, 130, 131,
          132, 133, 134, 135, 136, 137, 138, 139, 140, 141, 142, 143, 144, 145,
          146, 147, 148, 149, 150, 151, 152, 153, 154, 155, 156, 157, 158, 159,
          160, 161, 162, 163, 164, 165, 166, 167, 168, 169, 170, 171, 172, 173,
          174, 175, 176, 177, 178, 179, 180, 181, 182, 183, 184, 185, 186, 187,
          188, 189, 190, 191, 192, 193, 194, 195, 196, 197, 198, 199, 200
        ],
        "tree_info": [
          0, 0, 0, 0, 0, 0, 0, 0, 0, 0, 0, 0, 0, 0, 0, 0, 0, 0, 0, 0, 0, 0, 0,
          0, 0, 0, 0, 0, 0, 0, 0, 0, 0, 0, 0, 0, 0, 0, 0, 0, 0, 0, 0, 0, 0, 0,
          0, 0, 0, 0, 0, 0, 0, 0, 0, 0, 0, 0, 0, 0, 0, 0, 0, 0, 0, 0, 0, 0, 0,
          0, 0, 0, 0, 0, 0, 0, 0, 0, 0, 0, 0, 0, 0, 0, 0, 0, 0, 0, 0, 0, 0, 0,
          0, 0, 0, 0, 0, 0, 0, 0, 0, 0, 0, 0, 0, 0, 0, 0, 0, 0, 0, 0, 0, 0, 0,
          0, 0, 0, 0, 0, 0, 0, 0, 0, 0, 0, 0, 0, 0, 0, 0, 0, 0, 0, 0, 0, 0, 0,
          0, 0, 0, 0, 0, 0, 0, 0, 0, 0, 0, 0, 0, 0, 0, 0, 0, 0, 0, 0, 0, 0, 0,
          0, 0, 0, 0, 0, 0, 0, 0, 0, 0, 0, 0, 0, 0, 0, 0, 0, 0, 0, 0, 0, 0, 0,
          0, 0, 0, 0, 0, 0, 0, 0, 0, 0, 0, 0, 0, 0, 0, 0
        ],
        "trees": [
          {
            "base_weights": [
              1.044057e-3, 6.983359e-1, -5.078423e-1, 7.612579e-1, -1.4489726,
              -7.4952966e-1, 9.555566e-1, 7.7672744e-1, -1.5589519e-1,
              1.5542008e-1, -2.3414657, -1.3168346, -8.447887e-2, 1.3316175,
              -1.0416468, 6.4922065e-2, -3.5682276e-2, -1.1674734e-1,
              8.979941e-2, -5.1912684e-2, -2.0047277e-1, -4.345713e-2,
              -1.4915541e-1, 1.9887753e-2, -1.1951362e-1, 1.09601855e-1,
              -3.5706118e-2, 3.5342034e-2, -1.7611885e-1
            ],
            "categories": [],
            "categories_nodes": [],
            "categories_segments": [],
            "categories_sizes": [],
            "default_left": [
              0, 0, 0, 0, 0, 0, 0, 0, 0, 0, 0, 0, 0, 0, 0, 0, 0, 0, 0, 0, 0, 0,
              0, 0, 0, 0, 0, 0, 0
            ],
            "id": 0,
            "left_children": [
              1, 3, 5, 7, 9, 11, 13, 15, -1, 17, 19, 21, 23, 25, 27, -1, -1, -1,
              -1, -1, -1, -1, -1, -1, -1, -1, -1, -1, -1
            ],
            "loss_changes": [
              3.7714856e2, 6.169049e1, 2.1803523e2, 1.9804413e1, 1.9136683e1,
              1.990615e2, 6.713098e1, 1.885199e1, 0, 1.0420392e1, 7.359123e-1,
              1.1964923e2, 1.1495816e2, 5.671417, 2.580228e1, 0, 0, 0, 0, 0, 0,
              0, 0, 0, 0, 0, 0, 0, 0
            ],
            "parents": [
              2147483647, 0, 0, 1, 1, 2, 2, 3, 3, 4, 4, 5, 5, 6, 6, 7, 7, 9, 9,
              10, 10, 11, 11, 12, 12, 13, 13, 14, 14
            ],
            "right_children": [
              2, 4, 6, 8, 10, 12, 14, 16, -1, 18, 20, 22, 24, 26, 28, -1, -1,
              -1, -1, -1, -1, -1, -1, -1, -1, -1, -1, -1, -1
            ],
            "split_conditions": [
              1.0307086e-1, 9.9387056e-1, 7.606658e-1, 9.903879e-1, 6.484877e-1,
              1.2993105e-1, 9.983083e-1, 9.100184e-1, -1.5589519e-1,
              2.8243046e-2, 6.751528e-2, 4.5145547e-1, 9.667656e-1,
              9.2574096e-1, 9.6386474e-1, 6.4922065e-2, -3.5682276e-2,
              -1.1674734e-1, 8.979941e-2, -5.1912684e-2, -2.0047277e-1,
              -4.345713e-2, -1.4915541e-1, 1.9887753e-2, -1.1951362e-1,
              1.09601855e-1, -3.5706118e-2, 3.5342034e-2, -1.7611885e-1
            ],
            "split_indices": [
              45, 171, 35, 173, 202, 94, 247, 219, 0, 0, 8, 1, 171, 216, 233, 0,
              0, 0, 0, 0, 0, 0, 0, 0, 0, 0, 0, 0, 0
            ],
            "split_type": [
              0, 0, 0, 0, 0, 0, 0, 0, 0, 0, 0, 0, 0, 0, 0, 0, 0, 0, 0, 0, 0, 0,
              0, 0, 0, 0, 0, 0, 0
            ],
            "sum_hessian": [
              1.0608629e3, 4.474208e2, 6.1344214e2, 4.3531052e2, 1.2110308e1,
              5.2690845e2, 8.653365e1, 4.33549e2, 1.7614993, 4.6239357,
              7.486372, 2.8382156e2, 2.430869e2, 7.310222e1, 1.3431432e1,
              4.218791e2, 1.1669932e1, 1.5413119, 3.0826237, 1.100937, 6.385435,
              1.1846083e2, 1.6536075e2, 1.9728792e2, 4.579898e1, 7.17811e1,
              1.3211244, 6.1652474, 7.2661843
            ],
            "tree_param": {
              "num_deleted": "0",
              "num_feature": "252",
              "num_nodes": "29",
              "size_leaf_vector": "1"
            }
          },
          {
            "base_weights": [
              4.4040456e-3, 6.333496e-1, -4.80286e-1, 7.171459e-1, -1.3524066,
              -7.065617e-1, 8.574617e-1, 7.5595045e-1, -6.192984e-1, -1.5920364,
              7.0153564e-2, -1.242171, -1.5372333e-1, 1.2328372, -1.1477096,
              6.1833486e-2, -1.5065604e-1, -1.3021657e-1, 9.451408e-2,
              -1.7524166e-1, -5.3908177e-2, -4.558814e-2, -1.420756e-1,
              1.0166539e-2, -1.0095084e-1, 3.936375e-2, 1.08196616e-1,
              9.033314e-2, -1.497907e-1
            ],
            "categories": [],
            "categories_nodes": [],
            "categories_segments": [],
            "categories_sizes": [],
            "default_left": [
              0, 0, 0, 0, 0, 0, 0, 0, 0, 0, 0, 0, 0, 0, 0, 0, 0, 0, 0, 0, 0, 0,
              0, 0, 0, 0, 0, 0, 0
            ],
            "id": 1,
            "left_children": [
              1, 3, 5, 7, 9, 11, 13, 15, 17, 19, -1, 21, 23, 25, 27, -1, -1, -1,
              -1, -1, -1, -1, -1, -1, -1, -1, -1, -1, -1
            ],
            "loss_changes": [
              3.256609e2, 7.833722e1, 1.832367e2, 2.3638062e1, 1.1638229e1,
              1.5277704e2, 6.7456314e1, 2.0918594e1, 2.5812775e1, 8.232128, 0,
              9.30997e1, 7.962034e1, 5.9262466, 2.579682e1, 0, 0, 0, 0, 0, 0, 0,
              0, 0, 0, 0, 0, 0, 0
            ],
            "parents": [
              2147483647, 0, 0, 1, 1, 2, 2, 3, 3, 4, 4, 5, 5, 6, 6, 7, 7, 8, 8,
              9, 9, 11, 11, 12, 12, 13, 13, 14, 14
            ],
            "right_children": [
              2, 4, 6, 8, 10, 12, 14, 16, 18, 20, -1, 22, 24, 26, 28, -1, -1,
              -1, -1, -1, -1, -1, -1, -1, -1, -1, -1, -1, -1
            ],
            "split_conditions": [
              1.3072369e-1, 9.9387056e-1, 7.555888e-1, 9.785809e-1,
              3.2218006e-1, 1.14122696e-1, 9.983083e-1, 9.903879e-1,
              9.7847426e-1, 9.8787624e-1, 7.0153564e-2, 4.649786e-1,
              9.887155e-1, 7.695102e-1, 5.5174485e-2, 6.1833486e-2,
              -1.5065604e-1, -1.3021657e-1, 9.451408e-2, -1.7524166e-1,
              -5.3908177e-2, -4.558814e-2, -1.420756e-1, 1.0166539e-2,
              -1.0095084e-1, 3.936375e-2, 1.08196616e-1, 9.033314e-2,
              -1.497907e-1
            ],
            "split_indices": [
              45, 171, 35, 168, 17, 110, 247, 173, 176, 179, 0, 1, 169, 33, 111,
              0, 0, 0, 0, 0, 0, 0, 0, 0, 0, 0, 0, 0, 0
            ],
            "split_type": [
              0, 0, 0, 0, 0, 0, 0, 0, 0, 0, 0, 0, 0, 0, 0, 0, 0, 0, 0, 0, 0, 0,
              0, 0, 0, 0, 0, 0, 0
            ],
            "sum_hessian": [
              1.0662904e3, 4.639504e2, 6.0234e2, 4.4577798e2, 1.8172398e1,
              5.155998e2, 8.6740204e1, 4.336219e2, 1.2156122e1, 1.6666758e1,
              1.5056387, 2.6124728e2, 2.5435252e2, 7.338705e1, 1.3353156e1,
              4.3155438e2, 2.0674977, 7.8539686, 4.3021536, 9.251077, 7.4156814,
              1.1653378e2, 1.447135e2, 2.0363686e2, 5.071566e1, 1.0913707e1,
              6.247334e1, 3.089139, 1.0264017e1
            ],
            "tree_param": {
              "num_deleted": "0",
              "num_feature": "252",
              "num_nodes": "29",
              "size_leaf_vector": "1"
            }
          },
          {
            "base_weights": [
              9.465162e-3, 6.2755907e-1, -4.1285056e-1, 6.9010055e-1,
              -1.2912577, -6.006796e-1, 8.70223e-1, 7.047984e-1, -1.3208427e-1,
              4.783644e-2, -2.0053182, -9.2101973e-1, 1.3241182e-1, 1.2123889,
              -7.44374e-1, 5.7952557e-2, -8.494378e-2, -9.81426e-2, 8.546128e-2,
              -3.8871124e-2, -1.7360398e-1, -3.5224557e-2, -1.0380187e-1,
              3.4433004e-2, -1.4020492e-1, -1.3170951e-2, 1.0134733e-1,
              9.0161204e-2, -1.1246003e-1
            ],
            "categories": [],
            "categories_nodes": [],
            "categories_segments": [],
            "categories_sizes": [],
            "default_left": [
              0, 0, 0, 0, 0, 0, 0, 0, 0, 0, 0, 0, 0, 0, 0, 0, 0, 0, 0, 0, 0, 0,
              0, 0, 0, 0, 0, 0, 0
            ],
            "id": 2,
            "left_children": [
              1, 3, 5, 7, 9, 11, 13, 15, -1, 17, 19, 21, 23, 25, 27, -1, -1, -1,
              -1, -1, -1, -1, -1, -1, -1, -1, -1, -1, -1
            ],
            "loss_changes": [
              2.7817822e2, 5.280217e1, 1.5310535e2, 1.5601013e1, 1.3484943e1,
              1.2995728e2, 4.57934e1, 1.5236832e1, 0, 8.914905, 1.237297,
              6.908685e1, 9.5684364e1, 5.2645264, 1.993724e1, 0, 0, 0, 0, 0, 0,
              0, 0, 0, 0, 0, 0, 0, 0
            ],
            "parents": [
              2147483647, 0, 0, 1, 1, 2, 2, 3, 3, 4, 4, 5, 5, 6, 6, 7, 7, 9, 9,
              10, 10, 11, 11, 12, 12, 13, 13, 14, 14
            ],
            "right_children": [
              2, 4, 6, 8, 10, 12, 14, 16, -1, 18, 20, 22, 24, 26, 28, -1, -1,
              -1, -1, -1, -1, -1, -1, -1, -1, -1, -1, -1, -1
            ],
            "split_conditions": [
              1.0307086e-1, 9.9387056e-1, 7.606658e-1, 9.903879e-1, 6.484877e-1,
              1.8046784e-1, 9.983083e-1, 5.326276e-1, -1.3208427e-1,
              1.2783608e-1, 7.254396e-2, 4.5997015e-1, 9.68621e-1, 1.6334038e-2,
              5.5174485e-2, 5.7952557e-2, -8.494378e-2, -9.81426e-2,
              8.546128e-2, -3.8871124e-2, -1.7360398e-1, -3.5224557e-2,
              -1.0380187e-1, 3.4433004e-2, -1.4020492e-1, -1.3170951e-2,
              1.0134733e-1, 9.0161204e-2, -1.1246003e-1
            ],
            "split_indices": [
              45, 171, 35, 173, 202, 102, 247, 1, 0, 25, 101, 1, 213, 146, 111,
              0, 0, 0, 0, 0, 0, 0, 0, 0, 0, 0, 0, 0, 0
            ],
            "split_type": [
              0, 0, 0, 0, 0, 0, 0, 0, 0, 0, 0, 0, 0, 0, 0, 0, 0, 0, 0, 0, 0, 0,
              0, 0, 0, 0, 0, 0, 0
            ],
            "sum_hessian": [
              1.0636989e3, 4.3157184e2, 6.32127e2, 4.1856943e2, 1.3002406e1,
              5.5187054e2, 8.025644e1, 4.1665262e2, 1.9168077, 4.846555,
              8.15585, 3.838727e2, 1.6799783e2, 6.6428085e1, 1.3828352e1,
              4.1266217e2, 3.990458, 2.0649738, 2.7815814, 1.1840606, 6.97179,
              1.6955614e2, 2.1431657e2, 1.4573055e2, 2.2267288e1, 2.4499228,
              6.397816e1, 3.4271262, 1.0401226e1
            ],
            "tree_param": {
              "num_deleted": "0",
              "num_feature": "252",
              "num_nodes": "29",
              "size_leaf_vector": "1"
            }
          },
          {
            "base_weights": [
              -8.325295e-3, 5.500955e-1, -4.0624014e-1, 6.006218e-1, -1.7327054,
              -5.845052e-1, 6.0753757e-1, 6.225218e-1, -1.6025012,
              -1.7701131e-1, 4.085188e-2, -7.181603e-1, 1.1492468, 9.8650014e-1,
              -7.25985e-1, 4.406086e-2, 8.9318246e-2, -1.527165e-1,
              -3.3557076e-2, -2.4238875e-2, -8.147581e-2, 9.7718626e-2,
              -5.524873e-2, -5.617338e-2, 9.559628e-2, -1.264901e-1, 4.629602e-2
            ],
            "categories": [],
            "categories_nodes": [],
            "categories_segments": [],
            "categories_sizes": [],
            "default_left": [
              0, 0, 0, 0, 0, 0, 0, 0, 0, 0, 0, 0, 0, 0, 0, 0, 0, 0, 0, 0, 0, 0,
              0, 0, 0, 0, 0
            ],
            "id": 3,
            "left_children": [
              1, 3, 5, 7, 9, 11, 13, 15, 17, -1, -1, 19, 21, 23, 25, -1, -1, -1,
              -1, -1, -1, -1, -1, -1, -1, -1, -1
            ],
            "loss_changes": [
              2.3515623e2, 5.1830475e1, 1.1203024e2, 2.1819214e1, 1.1673325e1,
              1.2272208e2, 4.766416e1, 1.4557129e1, 8.4064674e-1, 0, 0,
              6.0656586e1, 5.8985176, 2.6453484e1, 2.4494534e1, 0, 0, 0, 0, 0,
              0, 0, 0, 0, 0, 0, 0
            ],
            "parents": [
              2147483647, 0, 0, 1, 1, 2, 2, 3, 3, 4, 4, 5, 5, 6, 6, 7, 7, 8, 8,
              11, 11, 12, 12, 13, 13, 14, 14
            ],
            "right_children": [
              2, 4, 6, 8, 10, 12, 14, 16, 18, -1, -1, 20, 22, 24, 26, -1, -1,
              -1, -1, -1, -1, -1, -1, -1, -1, -1, -1
            ],
            "split_conditions": [
              2.223499e-1, 4.0745208e-1, 7.161421e-1, 9.705969e-1, 4.7976202e-1,
              3.5350794e-1, 9.983083e-1, 2.3125139e-1, 1.3333334e-1,
              -1.7701131e-1, 4.085188e-2, 5.4248935e-1, 4.6645027e-1,
              7.361298e-1, 7.414933e-1, 4.406086e-2, 8.9318246e-2, -1.527165e-1,
              -3.3557076e-2, -2.4238875e-2, -8.147581e-2, 9.7718626e-2,
              -5.524873e-2, -5.617338e-2, 9.559628e-2, -1.264901e-1, 4.629602e-2
            ],
            "split_indices": [
              0, 8, 27, 237, 62, 102, 247, 15, 8, 0, 0, 211, 140, 33, 210, 0, 0,
              0, 0, 0, 0, 0, 0, 0, 0, 0, 0
            ],
            "split_type": [
              0, 0, 0, 0, 0, 0, 0, 0, 0, 0, 0, 0, 0, 0, 0, 0, 0, 0, 0, 0, 0, 0,
              0, 0, 0, 0, 0
            ],
            "sum_hessian": [
              1.0562845e3, 4.3934274e2, 6.1694183e2, 4.3055005e2, 8.792671,
              5.2504083e2, 9.190096e1, 4.270227e2, 3.5273588, 7.2543817,
              1.5382894, 4.8800616e2, 3.7034668e1, 7.176648e1, 2.0134481e1,
              3.7470172e2, 5.2320984e1, 2.3142638, 1.2130948, 2.0566489e2,
              2.8234128e2, 3.5958958e1, 1.0757132, 7.6253753, 6.4141106e1,
              1.2034634e1, 8.099849
            ],
            "tree_param": {
              "num_deleted": "0",
              "num_feature": "252",
              "num_nodes": "27",
              "size_leaf_vector": "1"
            }
          },
          {
            "base_weights": [
              1.3714013e-2, 5.532101e-1, -3.475386e-1, 6.1323625e-1, -1.1379935,
              -5.0705427e-1, 8.1314665e-1, 6.557656e-1, -4.4790894e-1,
              1.4147799e-1, -1.7125965, -9.5252925e-1, -4.4076346e-2, 1.1358011,
              -6.626301e-1, 5.3677693e-2, -1.260743e-1, -9.406086e-2,
              8.960402e-2, -1.0314935e-1, 6.790368e-2, -3.1124383e-2,
              -1.4779997e-1, -1.4421013e-1, -5.1454414e-2, 1.4430648e-2,
              -7.710229e-2, 9.432521e-2, -4.605062e-2, 8.428659e-2, -9.750453e-2
            ],
            "categories": [],
            "categories_nodes": [],
            "categories_segments": [],
            "categories_sizes": [],
            "default_left": [
              0, 0, 0, 0, 0, 0, 0, 0, 0, 0, 0, 0, 0, 0, 0, 0, 0, 0, 0, 0, 0, 0,
              0, 0, 0, 0, 0, 0, 0, 0, 0
            ],
            "id": 4,
            "left_children": [
              1, 3, 5, 7, 9, 11, 13, 15, 17, 19, 21, 23, 25, 27, 29, -1, -1, -1,
              -1, -1, -1, -1, -1, -1, -1, -1, -1, -1, -1, -1, -1
            ],
            "loss_changes": [
              2.0435133e2, 4.338646e1, 1.16690125e2, 1.8650055e1, 1.1096458e1,
              1.1396231e2, 3.7068214e1, 1.4341888e1, 1.9882439e1, 6.659936,
              1.1139622, 7.290991e1, 5.6345917e1, 5.33992, 1.4947518e1, 0, 0, 0,
              0, 0, 0, 0, 0, 0, 0, 0, 0, 0, 0, 0, 0
            ],
            "parents": [
              2147483647, 0, 0, 1, 1, 2, 2, 3, 3, 4, 4, 5, 5, 6, 6, 7, 7, 8, 8,
              9, 9, 10, 10, 11, 11, 12, 12, 13, 13, 14, 14
            ],
            "right_children": [
              2, 4, 6, 8, 10, 12, 14, 16, 18, 20, 22, 24, 26, 28, 30, -1, -1,
              -1, -1, -1, -1, -1, -1, -1, -1, -1, -1, -1, -1, -1, -1
            ],
            "split_conditions": [
              1.0307086e-1, 9.9387056e-1, 7.606658e-1, 9.32313e-1, 6.11635e-1,
              1.1721863e-1, 9.983083e-1, 9.903879e-1, 9.7847426e-1,
              2.4479258e-1, 1.1659239e-1, 2.7089158e-1, 9.9922466e-1,
              9.2574096e-1, 5.5174485e-2, 5.3677693e-2, -1.260743e-1,
              -9.406086e-2, 8.960402e-2, -1.0314935e-1, 6.790368e-2,
              -3.1124383e-2, -1.4779997e-1, -1.4421013e-1, -5.1454414e-2,
              1.4430648e-2, -7.710229e-2, 9.432521e-2, -4.605062e-2,
              8.428659e-2, -9.750453e-2
            ],
            "split_indices": [
              45, 171, 35, 170, 186, 110, 247, 173, 176, 208, 114, 79, 169, 216,
              111, 0, 0, 0, 0, 0, 0, 0, 0, 0, 0, 0, 0, 0, 0, 0, 0
            ],
            "split_type": [
              0, 0, 0, 0, 0, 0, 0, 0, 0, 0, 0, 0, 0, 0, 0, 0, 0, 0, 0, 0, 0, 0,
              0, 0, 0, 0, 0, 0, 0, 0, 0
            ],
            "sum_hessian": [
              1.0465371e3, 4.1950916e2, 6.27028e2, 4.0574536e2, 1.3763786e1,
              5.517613e2, 7.52667e1, 3.9047754e2, 1.5267828e1, 4.499193,
              9.264593, 2.806571e2, 2.7110422e2, 6.1952232e1, 1.331447e1,
              3.8852963e2, 1.9478897, 1.0598228e1, 4.6695995, 1.2161429,
              3.28305, 1.2162129, 8.04838, 7.359349e1, 2.070636e2, 2.1856567e2,
              5.2538536e1, 6.0728127e1, 1.2241071, 3.0398798, 1.02745905e1
            ],
            "tree_param": {
              "num_deleted": "0",
              "num_feature": "252",
              "num_nodes": "31",
              "size_leaf_vector": "1"
            }
          },
          {
            "base_weights": [
              1.1593244e-2, 5.192278e-1, -3.1271845e-1, 5.6272376e-1,
              -1.1036017, -4.6002343e-1, 7.7825224e-1, 6.058939e-1,
              -4.3507648e-1, 1.005105e-3, -1.3927682e-1, -9.23696e-1,
              -5.4750428e-2, 1.1012502, -7.185415e-1, 5.0568476e-2,
              -6.060732e-2, -8.518174e-2, 8.6913906e-2, -1.0328419e-1,
              6.0433507e-2, -2.5862722e-2, -1.0413195e-1, 1.0212649e-2,
              -9.631712e-2, 9.417538e-2, 2.3563268e-2, 7.230406e-2,
              -1.0631255e-1
            ],
            "categories": [],
            "categories_nodes": [],
            "categories_segments": [],
            "categories_sizes": [],
            "default_left": [
              0, 0, 0, 0, 0, 0, 0, 0, 0, 0, 0, 0, 0, 0, 0, 0, 0, 0, 0, 0, 0, 0,
              0, 0, 0, 0, 0, 0, 0
            ],
            "id": 5,
            "left_children": [
              1, 3, 5, 7, 9, 11, 13, 15, 17, 19, -1, 21, 23, 25, 27, -1, -1, -1,
              -1, -1, -1, -1, -1, -1, -1, -1, -1, -1, -1
            ],
            "loss_changes": [
              1.7141345e2, 2.9270103e1, 1.0245967e2, 1.7318825e1, 7.6983147,
              1.0525329e2, 3.751053e1, 1.4057724e1, 1.7446203e1, 5.84836, 0,
              5.887494e1, 6.3059566e1, 3.5045776, 1.5149102e1, 0, 0, 0, 0, 0, 0,
              0, 0, 0, 0, 0, 0, 0, 0
            ],
            "parents": [
              2147483647, 0, 0, 1, 1, 2, 2, 3, 3, 4, 4, 5, 5, 6, 6, 7, 7, 8, 8,
              9, 9, 11, 11, 12, 12, 13, 13, 14, 14
            ],
            "right_children": [
              2, 4, 6, 8, 10, 12, 14, 16, 18, 20, -1, 22, 24, 26, 28, -1, -1,
              -1, -1, -1, -1, -1, -1, -1, -1, -1, -1, -1, -1
            ],
            "split_conditions": [
              1.0307086e-1, 9.903879e-1, 7.606658e-1, 9.32313e-1, 7.296857e-1,
              1.02175795e-1, 1, 9.9922466e-1, 9.7847426e-1, 6.151281e-2,
              -1.3927682e-1, 4.3817958e-1, 9.68621e-1, 9.0078956e-1,
              5.596566e-2, 5.0568476e-2, -6.060732e-2, -8.518174e-2,
              8.6913906e-2, -1.0328419e-1, 6.0433507e-2, -2.5862722e-2,
              -1.0413195e-1, 1.0212649e-2, -9.631712e-2, 9.417538e-2,
              2.3563268e-2, 7.230406e-2, -1.0631255e-1
            ],
            "split_indices": [
              45, 173, 35, 170, 178, 102, 247, 169, 176, 1, 0, 1, 213, 12, 111,
              0, 0, 0, 0, 0, 0, 0, 0, 0, 0, 0, 0, 0, 0
            ],
            "split_type": [
              0, 0, 0, 0, 0, 0, 0, 0, 0, 0, 0, 0, 0, 0, 0, 0, 0, 0, 0, 0, 0, 0,
              0, 0, 0, 0, 0, 0, 0
            ],
            "sum_hessian": [
              1.0392063e3, 4.0487213e2, 6.343342e2, 3.9494e2, 9.932146,
              5.593835e2, 7.4950714e1, 3.7893787e2, 1.6002113e1, 3.9993289,
              5.932817, 2.6029782e2, 2.990857e2, 6.1864937e1, 1.30857725e1,
              3.7231677e2, 6.6211147, 1.1530309e1, 4.471804, 1.2120913,
              2.7872374, 1.012727e2, 1.5902512e2, 2.5888342e2, 4.020227e1,
              5.6122425e1, 5.7425146, 3.445891, 9.639882
            ],
            "tree_param": {
              "num_deleted": "0",
              "num_feature": "252",
              "num_nodes": "29",
              "size_leaf_vector": "1"
            }
          },
          {
            "base_weights": [
              -6.8554627e-3, 3.9951172e-1, -3.6891696e-1, 4.810821e-1,
              -1.1352452, -8.5863805e-1, -3.9368715e-2, 5.068966e-1,
              -1.5629011e-1, 1.6360842e-1, -1.7416325, -1.3932085,
              -7.7592835e-2, -3.4951124e-1, 5.3755677e-1, 4.2708386e-2,
              -1.1394706e-1, -8.5162304e-2, 4.5197196e-2, -1.5560065e-1,
              -2.4759194e-2, 2.0479068e-2, -1.3372773e-1, 4.434944e-2,
              -1.09014556e-1, 3.0672152e-3, -9.5751576e-2, -3.4505874e-2,
              6.959567e-2
            ],
            "categories": [],
            "categories_nodes": [],
            "categories_segments": [],
            "categories_sizes": [],
            "default_left": [
              0, 0, 0, 0, 0, 0, 0, 0, 0, 0, 0, 0, 0, 0, 0, 0, 0, 0, 0, 0, 0, 0,
              0, 0, 0, 0, 0, 0, 0
            ],
            "id": 6,
            "left_children": [
              1, 3, 5, 7, 9, 11, 13, 15, -1, 17, 19, 21, 23, 25, 27, -1, -1, -1,
              -1, -1, -1, -1, -1, -1, -1, -1, -1, -1, -1
            ],
            "loss_changes": [
              1.5189944e2, 6.1445587e1, 8.807721e1, 3.0065483e1, 1.9854832e1,
              9.156479e1, 5.8769054e1, 2.4633537e1, 0, 4.950136, 4.3567657,
              6.024614e1, 7.406889e1, 7.022688e1, 3.7365772e1, 0, 0, 0, 0, 0, 0,
              0, 0, 0, 0, 0, 0, 0, 0
            ],
            "parents": [
              2147483647, 0, 0, 1, 1, 2, 2, 3, 3, 4, 4, 5, 5, 6, 6, 7, 7, 9, 9,
              10, 10, 11, 11, 12, 12, 13, 13, 14, 14
            ],
            "right_children": [
              2, 4, 6, 8, 10, 12, 14, 16, -1, 18, 20, 22, 24, 26, 28, -1, -1,
              -1, -1, -1, -1, -1, -1, -1, -1, -1, -1, -1, -1
            ],
            "split_conditions": [
              2.4754173e-1, 9.9922466e-1, 3.315038e-1, 4.2297283e-1,
              6.2645066e-1, 4.1358554e-1, 4.5818368e-1, 2.9799965e-1,
              -1.5629011e-1, 2.0387311e-1, 3.2399905e-1, 2.8459972e-1,
              8.1681085e-1, 4.9955043e-1, 8.471286e-2, 4.2708386e-2,
              -1.1394706e-1, -8.5162304e-2, 4.5197196e-2, -1.5560065e-1,
              -2.4759194e-2, 2.0479068e-2, -1.3372773e-1, 4.434944e-2,
              -1.09014556e-1, 3.0672152e-3, -9.5751576e-2, -3.4505874e-2,
              6.959567e-2
            ],
            "split_indices": [
              18, 169, 24, 0, 193, 33, 47, 40, 0, 121, 108, 5, 215, 50, 86, 0,
              0, 0, 0, 0, 0, 0, 0, 0, 0, 0, 0, 0, 0
            ],
            "split_type": [
              0, 0, 0, 0, 0, 0, 0, 0, 0, 0, 0, 0, 0, 0, 0, 0, 0, 0, 0, 0, 0, 0,
              0, 0, 0, 0, 0, 0, 0
            ],
            "sum_hessian": [
              1.0304154e3, 4.8545337e2, 5.4496204e2, 4.6160614e2, 2.3847237e1,
              2.1856328e2, 3.2639877e2, 4.575467e2, 4.059434, 7.8223376,
              1.6024899e1, 1.2928976e2, 8.927351e1, 2.1253746e2, 1.13861305e2,
              4.5196133e2, 5.5853853, 1.5197197, 6.302618, 1.3718632e1,
              2.3062668, 1.8684074e1, 1.1060569e2, 6.022542e1, 2.9048092e1,
              1.464578e2, 6.6079666e1, 2.9008081e1, 8.4853226e1
            ],
            "tree_param": {
              "num_deleted": "0",
              "num_feature": "252",
              "num_nodes": "29",
              "size_leaf_vector": "1"
            }
          },
          {
            "base_weights": [
              -1.176055e-2, 4.2267224e-1, -3.0518195e-1, 4.912396e-1,
              -9.756227e-1, -1.017888, -5.494775e-2, 5.3169113e-1,
              -6.2558955e-1, -1.5624826, -1.7629683e-1, -8.763212e-2, -1.343008,
              -2.8461546e-1, 5.90818e-1, 3.656355e-2, 8.207963e-2,
              -1.1172512e-1, 8.600663e-2, -1.3867106e-1, -7.438591e-5,
              -5.1851604e-2, 7.7866316e-2, 9.343002e-2, -3.587773e-2,
              -1.1807687e-1, 4.1094585e-3, 3.031271e-2, -4.991017e-2,
              -1.3333459e-1, 5.6545366e-2
            ],
            "categories": [],
            "categories_nodes": [],
            "categories_segments": [],
            "categories_sizes": [],
            "default_left": [
              0, 0, 0, 0, 0, 0, 0, 0, 0, 0, 0, 0, 0, 0, 0, 0, 0, 0, 0, 0, 0, 0,
              0, 0, 0, 0, 0, 0, 0, 0, 0
            ],
            "id": 7,
            "left_children": [
              1, 3, 5, 7, 9, 11, 13, 15, 17, 19, 21, 23, 25, 27, 29, -1, -1, -1,
              -1, -1, -1, -1, -1, -1, -1, -1, -1, -1, -1, -1, -1
            ],
            "loss_changes": [
              1.3157838e2, 4.0376747e1, 1.0981656e2, 1.8283592e1, 9.006273,
              4.828514e1, 6.7951584e1, 1.3699821e1, 2.0314367e1, 3.0094357,
              5.786343, 1.9785498e1, 2.204808e1, 7.627964e1, 3.26616e1, 0, 0, 0,
              0, 0, 0, 0, 0, 0, 0, 0, 0, 0, 0, 0, 0
            ],
            "parents": [
              2147483647, 0, 0, 1, 1, 2, 2, 3, 3, 4, 4, 5, 5, 6, 6, 7, 7, 8, 8,
              9, 9, 10, 10, 11, 11, 12, 12, 13, 13, 14, 14
            ],
            "right_children": [
              2, 4, 6, 8, 10, 12, 14, 16, 18, 20, 22, 24, 26, 28, 30, -1, -1,
              -1, -1, -1, -1, -1, -1, -1, -1, -1, -1, -1, -1, -1, -1
            ],
            "split_conditions": [
              1.3333334e-1, 9.9387056e-1, 2.326177e-1, 9.785809e-1,
              9.8787624e-1, 3.5273585e-1, 1.8123877e-1, 2.995687e-2,
              3.3028504e-1, 2.308411e-1, 1.773233e-1, 8.677294e-2, 6.186307e-1,
              2.5967857e-1, 1.6749763e-1, 3.656355e-2, 8.207963e-2,
              -1.1172512e-1, 8.600663e-2, -1.3867106e-1, -7.438591e-5,
              -5.1851604e-2, 7.7866316e-2, 9.343002e-2, -3.587773e-2,
              -1.1807687e-1, 4.1094585e-3, 3.031271e-2, -4.991017e-2,
              -1.3333459e-1, 5.6545366e-2
            ],
            "split_indices": [
              45, 171, 83, 168, 179, 3, 104, 58, 100, 68, 24, 121, 10, 199, 59,
              0, 0, 0, 0, 0, 0, 0, 0, 0, 0, 0, 0, 0, 0, 0, 0
            ],
            "split_type": [
              0, 0, 0, 0, 0, 0, 0, 0, 0, 0, 0, 0, 0, 0, 0, 0, 0, 0, 0, 0, 0, 0,
              0, 0, 0, 0, 0, 0, 0, 0, 0
            ],
            "sum_hessian": [
              1.030203e3, 4.1513034e2, 6.1507263e2, 3.9634375e2, 1.8786585e1,
              1.5903851e2, 4.5603412e2, 3.8299557e2, 1.3348157e1, 1.0282495e1,
              8.504091, 4.151695e1, 1.1752156e2, 3.3680728e2, 1.1922684e2,
              3.3441843e2, 4.8577164e1, 9.307539, 4.0406175, 9.16895, 1.113545,
              6.338679, 2.1654122, 8.769108, 3.274784e1, 1.0723798e2,
              1.0283575e1, 1.13908806e2, 2.2289848e2, 5.1735935, 1.14053246e2
            ],
            "tree_param": {
              "num_deleted": "0",
              "num_feature": "252",
              "num_nodes": "31",
              "size_leaf_vector": "1"
            }
          },
          {
            "base_weights": [
              -2.3661505e-3, 3.7982476e-1, -3.3318627e-1, 4.4510335e-1,
              -8.3381045e-1, -7.509871e-1, -5.1762637e-2, 4.7224542e-1,
              -1.3607566e-1, 5.25212e-1, -1.2460316, -1.1909431, -1.13186024e-1,
              -2.7311528e-1, 5.875102e-1, 3.9811853e-2, -1.02738194e-1,
              -6.5612026e-2, 9.657615e-2, -1.2079706e-1, 2.2737531e-2,
              2.8519949e-2, -1.1732831e-1, -8.949802e-2, 5.8777828e-2,
              3.1908597e-3, -8.736726e-2, -9.073203e-2, 5.8420014e-2
            ],
            "categories": [],
            "categories_nodes": [],
            "categories_segments": [],
            "categories_sizes": [],
            "default_left": [
              0, 0, 0, 0, 0, 0, 0, 0, 0, 0, 0, 0, 0, 0, 0, 0, 0, 0, 0, 0, 0, 0,
              0, 0, 0, 0, 0, 0, 0
            ],
            "id": 8,
            "left_children": [
              1, 3, 5, 7, 9, 11, 13, 15, -1, 17, 19, 21, 23, 25, 27, -1, -1, -1,
              -1, -1, -1, -1, -1, -1, -1, -1, -1, -1, -1
            ],
            "loss_changes": [
              1.2950752e2, 3.8022423e1, 6.45167e1, 2.711068e1, 1.443903e1,
              6.1851624e1, 4.6734818e1, 2.0574287e1, 0, 6.889743, 8.173914,
              5.6242325e1, 7.8648605e1, 6.288926e1, 2.1709852e1, 0, 0, 0, 0, 0,
              0, 0, 0, 0, 0, 0, 0, 0, 0
            ],
            "parents": [
              2147483647, 0, 0, 1, 1, 2, 2, 3, 3, 4, 4, 5, 5, 6, 6, 7, 7, 9, 9,
              10, 10, 11, 11, 12, 12, 13, 13, 14, 14
            ],
            "right_children": [
              2, 4, 6, 8, 10, 12, 14, 16, -1, 18, 20, 22, 24, 26, 28, -1, -1,
              -1, -1, -1, -1, -1, -1, -1, -1, -1, -1, -1, -1
            ],
            "split_conditions": [
              2.4754173e-1, 9.9922466e-1, 3.315038e-1, 4.2033005e-1,
              3.4181842e-1, 4.1071358e-1, 5.024116e-1, 2.9799965e-1,
              -1.3607566e-1, 6.9781387e-1, 7.257851e-2, 2.8459972e-1,
              1.8341209e-1, 5.427115e-1, 3.378595e-1, 3.9811853e-2,
              -1.02738194e-1, -6.5612026e-2, 9.657615e-2, -1.2079706e-1,
              2.2737531e-2, 2.8519949e-2, -1.1732831e-1, -8.949802e-2,
              5.8777828e-2, 3.1908597e-3, -8.736726e-2, -9.073203e-2,
              5.8420014e-2
            ],
            "split_indices": [
              18, 169, 24, 0, 193, 33, 47, 40, 0, 202, 56, 5, 40, 48, 20, 0, 0,
              0, 0, 0, 0, 0, 0, 0, 0, 0, 0, 0, 0
            ],
            "split_type": [
              0, 0, 0, 0, 0, 0, 0, 0, 0, 0, 0, 0, 0, 0, 0, 0, 0, 0, 0, 0, 0, 0,
              0, 0, 0, 0, 0, 0, 0
            ],
            "sum_hessian": [
              1.0222885e3, 4.7424878e2, 5.4803973e2, 4.50643e2, 2.3605782e1,
              2.199033e2, 3.2813644e2, 4.4578488e2, 4.8581038, 5.4299774,
              1.8175804e1, 1.2962238e2, 9.0280945e1, 2.4416528e2, 8.397114e1,
              4.4013617e2, 5.648729, 1.7584655, 3.671512, 1.5513376e1,
              2.6624281, 1.9555098e1, 1.10067276e2, 4.115529e1, 4.9125652e1,
              1.7733978e2, 6.68255e1, 5.897138, 7.8074005e1
            ],
            "tree_param": {
              "num_deleted": "0",
              "num_feature": "252",
              "num_nodes": "29",
              "size_leaf_vector": "1"
            }
          },
          {
            "base_weights": [
              -1.1918678e-2, 3.4949696e-1, -3.2006055e-1, 4.0904418e-1,
              -7.705036e-1, -4.1176152e-1, 1.0153457, 4.3401766e-1, -1.2152272,
              -1.1058286, 4.67973e-1, 2.1785294e-1, -6.068948e-1, 1.3898926e-2,
              1.2224253, 3.7185606e-2, -9.174818e-2, -1.4006394e-1, 7.014605e-2,
              -1.0213094e-1, 3.3813335e-2, 7.300362e-2, -5.1222995e-2,
              -2.5507085e-2, 8.533321e-2, -9.048947e-2, -2.291999e-2,
              5.5354126e-2, -1.17468946e-1, 2.5221178e-2, 1.0309469e-1
            ],
            "categories": [],
            "categories_nodes": [],
            "categories_segments": [],
            "categories_sizes": [],
            "default_left": [
              0, 0, 0, 0, 0, 0, 0, 0, 0, 0, 0, 0, 0, 0, 0, 0, 0, 0, 0, 0, 0, 0,
              0, 0, 0, 0, 0, 0, 0, 0, 0
            ],
            "id": 9,
            "left_children": [
              1, 3, 5, 7, 9, 11, 13, 15, 17, 19, 21, 23, 25, 27, 29, -1, -1, -1,
              -1, -1, -1, -1, -1, -1, -1, -1, -1, -1, -1, -1, -1
            ],
            "loss_changes": [
              1.1220833e2, 3.1241245e1, 6.701553e1, 1.8414078e1, 1.0383272e1,
              6.2741676e1, 7.289757, 2.1715836e1, 9.311285, 5.4979916,
              3.4243793, 5.5601616e1, 6.5061874e1, 8.100104, 1.3479424, 0, 0, 0,
              0, 0, 0, 0, 0, 0, 0, 0, 0, 0, 0, 0, 0
            ],
            "parents": [
              2147483647, 0, 0, 1, 1, 2, 2, 3, 3, 4, 4, 5, 5, 6, 6, 7, 7, 8, 8,
              9, 9, 10, 10, 11, 11, 12, 12, 13, 13, 14, 14
            ],
            "right_children": [
              2, 4, 6, 8, 10, 12, 14, 16, 18, 20, 22, 24, 26, 28, 30, -1, -1,
              -1, -1, -1, -1, -1, -1, -1, -1, -1, -1, -1, -1, -1, -1
            ],
            "split_conditions": [
              2.4754173e-1, 9.9922466e-1, 3.5162333e-1, 2.9799965e-1,
              3.172604e-1, 5.8460392e-2, 3.3584854e-1, 3.8041437e-1,
              2.2934896e-1, 3.352943e-1, 9.5956576e-1, 7.093094e-2, 4.451171e-1,
              3.7789717e-1, 6.212885e-1, 3.7185606e-2, -9.174818e-2,
              -1.4006394e-1, 7.014605e-2, -1.0213094e-1, 3.3813335e-2,
              7.300362e-2, -5.1222995e-2, -2.5507085e-2, 8.533321e-2,
              -9.048947e-2, -2.291999e-2, 5.5354126e-2, -1.17468946e-1,
              2.5221178e-2, 1.0309469e-1
            ],
            "split_indices": [
              18, 169, 94, 40, 116, 113, 84, 2, 42, 45, 206, 88, 228, 67, 205,
              0, 0, 0, 0, 0, 0, 0, 0, 0, 0, 0, 0, 0, 0, 0, 0
            ],
            "split_type": [
              0, 0, 0, 0, 0, 0, 0, 0, 0, 0, 0, 0, 0, 0, 0, 0, 0, 0, 0, 0, 0, 0,
              0, 0, 0, 0, 0, 0, 0, 0, 0
            ],
            "sum_hessian": [
              1.0055474e3, 4.6270844e2, 5.428389e2, 4.399522e2, 2.2756222e1,
              5.0860522e2, 3.423374e1, 4.34012e2, 5.940223, 1.7991909e1,
              4.7643137, 1.2030718e2, 3.8829803e2, 6.048764, 2.8184977e1,
              4.264096e2, 7.6024013, 4.859337, 1.0808864, 1.6331636e1,
              1.6602715, 3.5263395, 1.237974, 7.4087265e1, 4.6219917e1,
              1.4633588e2, 2.4196216e2, 4.516147, 1.5326171, 2.3104248,
              2.5874552e1
            ],
            "tree_param": {
              "num_deleted": "0",
              "num_feature": "252",
              "num_nodes": "31",
              "size_leaf_vector": "1"
            }
          },
          {
            "base_weights": [
              -1.005046e-2, 3.460919e-1, -2.5189674e-1, 4.1544092e-1,
              -8.40033e-1, -8.1755e-1, -4.0557973e-2, 4.4856435e-1,
              -5.892122e-1, -1.2660182, -2.6750475e-2, -1.217878, -2.6036397e-1,
              -2.1573341e-1, 6.3696593e-1, 2.8524509e-2, 7.219911e-2,
              -9.676545e-2, 7.779944e-2, -3.7088204e-2, -1.2592994e-1,
              3.4347445e-2, -9.5556885e-2, 8.105033e-2, -1.08026445e-1,
              4.744545e-2, -7.4684754e-2, 3.1939574e-2, -3.623975e-2,
              -5.1863782e-2, 6.646318e-2
            ],
            "categories": [],
            "categories_nodes": [],
            "categories_segments": [],
            "categories_sizes": [],
            "default_left": [
              0, 0, 0, 0, 0, 0, 0, 0, 0, 0, 0, 0, 0, 0, 0, 0, 0, 0, 0, 0, 0, 0,
              0, 0, 0, 0, 0, 0, 0, 0, 0
            ],
            "id": 10,
            "left_children": [
              1, 3, 5, 7, 9, 11, 13, 15, 17, 19, 21, 23, 25, 27, 29, -1, -1, -1,
              -1, -1, -1, -1, -1, -1, -1, -1, -1, -1, -1, -1, -1
            ],
            "loss_changes": [
              8.568909e1, 3.3446278e1, 7.079483e1, 1.2936714e1, 7.7807636,
              3.561757e1, 5.1454884e1, 1.50987015e1, 1.337056e1, 2.9246216,
              5.1863537, 2.8989899e1, 3.9981506e1, 5.041858e1, 2.2729725e1, 0,
              0, 0, 0, 0, 0, 0, 0, 0, 0, 0, 0, 0, 0, 0, 0
            ],
            "parents": [
              2147483647, 0, 0, 1, 1, 2, 2, 3, 3, 4, 4, 5, 5, 6, 6, 7, 7, 8, 8,
              9, 9, 10, 10, 11, 11, 12, 12, 13, 13, 14, 14
            ],
            "right_children": [
              2, 4, 6, 8, 10, 12, 14, 16, 18, 20, 22, 24, 26, 28, 30, -1, -1,
              -1, -1, -1, -1, -1, -1, -1, -1, -1, -1, -1, -1, -1, -1
            ],
            "split_conditions": [
              1.3714883e-1, 9.9922466e-1, 2.5781348e-1, 9.785809e-1,
              3.519764e-1, 4.565996e-1, 2.2995035e-1, 3.7874334e-2,
              3.3028504e-1, 1.8330115e-1, 4.6750787e-1, 3.0947004e-2,
              2.9534683e-1, 2.1478397e-1, 2.6351938e-1, 2.8524509e-2,
              7.219911e-2, -9.676545e-2, 7.779944e-2, -3.7088204e-2,
              -1.2592994e-1, 3.4347445e-2, -9.5556885e-2, 8.105033e-2,
              -1.08026445e-1, 4.744545e-2, -7.4684754e-2, 3.1939574e-2,
              -3.623975e-2, -5.1863782e-2, 6.646318e-2
            ],
            "split_indices": [
              47, 169, 81, 168, 89, 186, 120, 63, 100, 7, 119, 126, 34, 191, 63,
              0, 0, 0, 0, 0, 0, 0, 0, 0, 0, 0, 0, 0, 0, 0, 0
            ],
            "split_type": [
              0, 0, 0, 0, 0, 0, 0, 0, 0, 0, 0, 0, 0, 0, 0, 0, 0, 0, 0, 0, 0, 0,
              0, 0, 0, 0, 0, 0, 0, 0, 0
            ],
            "sum_hessian": [
              9.9284894e2, 4.0136642e2, 5.914825e2, 3.7980988e2, 2.1556545e1,
              1.601007e2, 4.313818e2, 3.6822308e2, 1.1586807e1, 1.3781386e1,
              7.7751584, 9.247404e1, 6.7626656e1, 3.4330188e2, 8.807993e1,
              3.076497e2, 6.0573383e1, 8.454078, 3.1327295, 4.5184517, 9.262935,
              6.045989, 1.7291691, 4.8097935, 8.766424e1, 2.9873749e1,
              3.7752907e1, 9.538495e1, 2.4791693e2, 1.1234984e1, 7.684495e1
            ],
            "tree_param": {
              "num_deleted": "0",
              "num_feature": "252",
              "num_nodes": "31",
              "size_leaf_vector": "1"
            }
          },
          {
            "base_weights": [
              -8.039883e-4, 3.096983e-1, -2.6259026e-1, 3.487843e-1, -1.0978771,
              -3.4153876e-1, 9.307549e-1, 2.832869e-1, 1.0273774, 4.278143e-3,
              -1.3473301, -4.6224666e-1, 5.2801687e-1, -2.341321e-2, 1.1312474,
              3.466662e-2, -1.8688262e-2, 8.965214e-2, -6.221295e-2,
              -2.397271e-2, -1.313858e-1, -1.1142144e-2, -5.624404e-2,
              6.754757e-2, -8.767e-2, 5.20069e-2, -1.1012109e-1, 6.730316e-3,
              9.871127e-2
            ],
            "categories": [],
            "categories_nodes": [],
            "categories_segments": [],
            "categories_sizes": [],
            "default_left": [
              0, 0, 0, 0, 0, 0, 0, 0, 0, 0, 0, 0, 0, 0, 0, 0, 0, 0, 0, 0, 0, 0,
              0, 0, 0, 0, 0, 0, 0
            ],
            "id": 11,
            "left_children": [
              1, 3, 5, 7, 9, 11, 13, 15, 17, -1, 19, 21, 23, 25, 27, -1, -1, -1,
              -1, -1, -1, -1, -1, -1, -1, -1, -1, -1, -1
            ],
            "loss_changes": [
              8.030465e1, 2.5245995e1, 5.081742e1, 1.9286095e1, 3.648119,
              5.309111e1, 6.4407673, 3.1362873e1, 7.3351326, 0, 2.6824818,
              3.432782e1, 3.269094e1, 7.093308, 2.876358, 0, 0, 0, 0, 0, 0, 0,
              0, 0, 0, 0, 0, 0, 0
            ],
            "parents": [
              2147483647, 0, 0, 1, 1, 2, 2, 3, 3, 4, 4, 5, 5, 6, 6, 7, 7, 8, 8,
              10, 10, 11, 11, 12, 12, 13, 13, 14, 14
            ],
            "right_children": [
              2, 4, 6, 8, 10, 12, 14, 16, 18, -1, 20, 22, 24, 26, 28, -1, -1,
              -1, -1, -1, -1, -1, -1, -1, -1, -1, -1, -1, -1
            ],
            "split_conditions": [
              2.4975896e-1, 9.97634e-1, 3.5162333e-1, 2.2680184e-1, 8.830533e-1,
              7.5090533e-1, 3.3584854e-1, 1.434072e-1, 9.927772e-1, 4.278143e-3,
              2.1111171e-1, 5.552313e-1, 9.86493e-1, 4.7620258e-1, 6.212885e-1,
              3.466662e-2, -1.8688262e-2, 8.965214e-2, -6.221295e-2,
              -2.397271e-2, -1.313858e-1, -1.1142144e-2, -5.624404e-2,
              6.754757e-2, -8.767e-2, 5.20069e-2, -1.1012109e-1, 6.730316e-3,
              9.871127e-2
            ],
            "split_indices": [
              18, 168, 94, 96, 202, 35, 84, 127, 213, 0, 120, 211, 241, 75, 205,
              0, 0, 0, 0, 0, 0, 0, 0, 0, 0, 0, 0, 0, 0
            ],
            "split_type": [
              0, 0, 0, 0, 0, 0, 0, 0, 0, 0, 0, 0, 0, 0, 0, 0, 0, 0, 0, 0, 0, 0,
              0, 0, 0, 0, 0, 0, 0
            ],
            "sum_hessian": [
              9.85936e2, 4.509204e2, 5.3501556e2, 4.394693e2, 1.1451111e1,
              5.0248624e2, 3.252934e1, 4.020784e2, 3.7390907e1, 2.1790936,
              9.2720175, 4.4164713e2, 6.083911e1, 5.801679, 2.672766e1,
              3.1174493e2, 9.0333466e1, 3.5914215e1, 1.4766934, 2.4800158,
              6.7920017, 1.893143e2, 2.5233282e2, 5.132186e1, 9.517249,
              4.220502, 1.5811771, 2.5485198, 2.417914e1
            ],
            "tree_param": {
              "num_deleted": "0",
              "num_feature": "252",
              "num_nodes": "29",
              "size_leaf_vector": "1"
            }
          },
          {
            "base_weights": [
              -1.9267052e-3, 2.8821534e-1, -2.4215147e-1, 4.350058e-1,
              -1.0476855e-1, -3.6836198e-1, 4.745556e-1, 4.562058e-1,
              -1.1515694e-1, -1.4430026, 2.780615e-1, 2.1916327e-1,
              -5.3959846e-1, -1.5843216, 7.242653e-1, 2.6247367e-2, 6.834277e-2,
              -1.4870006e-1, 3.4844648e-2, -6.358834e-2, 4.513426e-2,
              -2.1510277e-2, 8.3388746e-2, -1.1851564e-1, -3.297584e-2,
              -1.5003361e-1, 2.4076458e-2, -5.5736203e-2, 7.929938e-2
            ],
            "categories": [],
            "categories_nodes": [],
            "categories_segments": [],
            "categories_sizes": [],
            "default_left": [
              0, 0, 0, 0, 0, 0, 0, 0, 0, 0, 0, 0, 0, 0, 0, 0, 0, 0, 0, 0, 0, 0,
              0, 0, 0, 0, 0, 0, 0
            ],
            "id": 12,
            "left_children": [
              1, 3, 5, 7, 9, 11, 13, 15, -1, 17, 19, 21, 23, 25, 27, -1, -1, -1,
              -1, -1, -1, -1, -1, -1, -1, -1, -1, -1, -1
            ],
            "loss_changes": [
              6.838195e1, 2.5680386e1, 4.872389e1, 1.352121e1, 6.2727016e1,
              4.6086605e1, 4.2688313e1, 1.6083725e1, 0, 2.20704e1, 2.974429e1,
              4.199333e1, 4.187699e1, 5.532976, 2.8288025e1, 0, 0, 0, 0, 0, 0,
              0, 0, 0, 0, 0, 0, 0, 0
            ],
            "parents": [
              2147483647, 0, 0, 1, 1, 2, 2, 3, 3, 4, 4, 5, 5, 6, 6, 7, 7, 9, 9,
              10, 10, 11, 11, 12, 12, 13, 13, 14, 14
            ],
            "right_children": [
              2, 4, 6, 8, 10, 12, 14, 16, -1, 18, 20, 22, 24, 26, 28, -1, -1,
              -1, -1, -1, -1, -1, -1, -1, -1, -1, -1, -1, -1
            ],
            "split_conditions": [
              2.4754173e-1, 1.434072e-1, 9.175014e-1, 7.334255e-1, 4.429471e-1,
              5.034287e-2, 1.8042462e-1, 4.4388924e-2, -1.1515694e-1,
              1.9249327e-1, 2.028418e-1, 7.093094e-2, 4.9532164e-2,
              3.5402557e-1, 1.7627719e-1, 2.6247367e-2, 6.834277e-2,
              -1.4870006e-1, 3.4844648e-2, -6.358834e-2, 4.513426e-2,
              -2.1510277e-2, 8.3388746e-2, -1.1851564e-1, -3.297584e-2,
              -1.5003361e-1, 2.4076458e-2, -5.5736203e-2, 7.929938e-2
            ],
            "split_indices": [
              18, 127, 194, 213, 217, 105, 15, 33, 0, 92, 155, 88, 158, 92, 102,
              0, 0, 0, 0, 0, 0, 0, 0, 0, 0, 0, 0, 0, 0
            ],
            "split_type": [
              0, 0, 0, 0, 0, 0, 0, 0, 0, 0, 0, 0, 0, 0, 0, 0, 0, 0, 0, 0, 0, 0,
              0, 0, 0, 0, 0, 0, 0
            ],
            "sum_hessian": [
              9.790982e2, 4.4338303e2, 5.357152e2, 3.2272812e2, 1.206549e2,
              4.5591553e2, 7.979966e1, 3.198671e2, 2.8610306, 2.6222239e1,
              9.443266e1, 1.02827354e2, 3.5308817e2, 8.05347, 7.174619e1,
              2.4336812e2, 7.649896e1, 2.147918e1, 4.743058, 1.9506548e1,
              7.492612e1, 6.497784e1, 3.7849518e1, 4.0803974e1, 3.122842e2,
              6.9808164, 1.0726534, 1.1093288e1, 6.06529e1
            ],
            "tree_param": {
              "num_deleted": "0",
              "num_feature": "252",
              "num_nodes": "29",
              "size_leaf_vector": "1"
            }
          },
          {
            "base_weights": [
              5.28187e-4, 3.1923595e-1, -2.0742196e-1, 3.905033e-1,
              -8.6823857e-1, -7.461804e-1, -3.790704e-2, 2.993326e-1,
              8.15198e-1, 3.222428e-1, -1.0791752, -8.800429e-1, 4.9741697e-1,
              -1.9749457e-1, 5.200286e-1, 2.8583646e-2, -6.7817226e-2,
              7.7389166e-2, -3.262602e-2, -5.7643045e-2, 7.335362e-2,
              -9.6222974e-2, 2.0197598e-2, -1.0212797e-1, -2.709382e-2,
              7.8619406e-2, -8.35513e-2, -2.5341276e-4, -6.795664e-2,
              5.4562703e-2, -8.536969e-2
            ],
            "categories": [],
            "categories_nodes": [],
            "categories_segments": [],
            "categories_sizes": [],
            "default_left": [
              0, 0, 0, 0, 0, 0, 0, 0, 0, 0, 0, 0, 0, 0, 0, 0, 0, 0, 0, 0, 0, 0,
              0, 0, 0, 0, 0, 0, 0, 0, 0
            ],
            "id": 13,
            "left_children": [
              1, 3, 5, 7, 9, 11, 13, 15, 17, 19, 21, 23, 25, 27, 29, -1, -1, -1,
              -1, -1, -1, -1, -1, -1, -1, -1, -1, -1, -1, -1, -1
            ],
            "loss_changes": [
              6.46913e1, 3.2955658e1, 5.391796e1, 1.3860779e1, 5.905304,
              2.3963333e1, 4.0203457e1, 2.0347136e1, 1.2267929e1, 3.203905,
              3.4361782, 2.7035828e1, 1.1780935e1, 4.4457546e1, 2.6554632e1, 0,
              0, 0, 0, 0, 0, 0, 0, 0, 0, 0, 0, 0, 0, 0, 0
            ],
            "parents": [
              2147483647, 0, 0, 1, 1, 2, 2, 3, 3, 4, 4, 5, 5, 6, 6, 7, 7, 8, 8,
              9, 9, 10, 10, 11, 11, 12, 12, 13, 13, 14, 14
            ],
            "right_children": [
              2, 4, 6, 8, 10, 12, 14, 16, 18, 20, 22, 24, 26, 28, 30, -1, -1,
              -1, -1, -1, -1, -1, -1, -1, -1, -1, -1, -1, -1, -1, -1
            ],
            "split_conditions": [
              1.3714883e-1, 9.9922466e-1, 2.326177e-1, 3.7874334e-2,
              4.402786e-1, 6.186307e-1, 2.0832539e-1, 2.5385728e-2, 9.223383e-1,
              1.0546662e-1, 4.4484857e-1, 4.565996e-1, 7.2132623e-1,
              5.1578987e-1, 9.724299e-1, 2.8583646e-2, -6.7817226e-2,
              7.7389166e-2, -3.262602e-2, -5.7643045e-2, 7.335362e-2,
              -9.6222974e-2, 2.0197598e-2, -1.0212797e-1, -2.709382e-2,
              7.8619406e-2, -8.35513e-2, -2.5341276e-4, -6.795664e-2,
              5.4562703e-2, -8.536969e-2
            ],
            "split_indices": [
              47, 169, 83, 63, 207, 10, 102, 49, 231, 99, 7, 186, 10, 48, 173,
              0, 0, 0, 0, 0, 0, 0, 0, 0, 0, 0, 0, 0, 0, 0, 0
            ],
            "split_type": [
              0, 0, 0, 0, 0, 0, 0, 0, 0, 0, 0, 0, 0, 0, 0, 0, 0, 0, 0, 0, 0, 0,
              0, 0, 0, 0, 0, 0, 0, 0, 0
            ],
            "sum_hessian": [
              9.741003e2, 3.8441086e2, 5.8968945e2, 3.6327945e2, 2.1131393e1,
              1.403194e2, 4.4937006e2, 3.0047934e2, 6.280013e1, 3.1012003,
              1.8030193e1, 1.2694699e2, 1.3372402e1, 3.4992603e2, 9.944405e1,
              2.8668118e2, 1.3798153e1, 5.6037117e1, 6.7630105, 1.0494027,
              2.0517976, 1.6587225e1, 1.4429677, 7.248974e1, 5.4457253e1,
              1.0446644e1, 2.925758, 2.7034943e2, 7.957659e1, 9.07511e1, 8.69296
            ],
            "tree_param": {
              "num_deleted": "0",
              "num_feature": "252",
              "num_nodes": "31",
              "size_leaf_vector": "1"
            }
          },
          {
            "base_weights": [
              -8.147798e-3, 2.8799596e-1, -1.7713888e-1, 1.8560429e-1,
              1.0830292, -4.9096313e-1, 1.8630001e-1, 3.5479656e-1,
              -3.8757303e-1, 1.183985, -9.072149e-2, -2.2254128, -4.4423908e-1,
              7.457413e-1, -4.872363e-2, 3.2378428e-2, -1.4698042e-1,
              -7.5806715e-2, 4.2209506e-2, 1.01842746e-1, -3.2204606e-2,
              -2.3300895e-1, -1.0399106e-1, -4.7318602e-4, -5.2651547e-2,
              -1.1687013e-1, 6.819002e-2, 9.076477e-3, -1.23749204e-1
            ],
            "categories": [],
            "categories_nodes": [],
            "categories_segments": [],
            "categories_sizes": [],
            "default_left": [
              0, 0, 0, 0, 0, 0, 0, 0, 0, 0, 0, 0, 0, 0, 0, 0, 0, 0, 0, 0, 0, 0,
              0, 0, 0, 0, 0, 0, 0
            ],
            "id": 14,
            "left_children": [
              1, 3, 5, 7, 9, 11, 13, 15, 17, 19, -1, 21, 23, 25, 27, -1, -1, -1,
              -1, -1, -1, -1, -1, -1, -1, -1, -1, -1, -1
            ],
            "loss_changes": [
              4.8280132e1, 2.8332146e1, 7.01438e1, 3.0367725e1, 1.024741e1,
              2.574411e1, 3.7551308e1, 2.7144976e1, 3.7156586e1, 5.9575768, 0,
              1.5588837, 3.023037e1, 2.1120518e1, 4.9220154e1, 0, 0, 0, 0, 0, 0,
              0, 0, 0, 0, 0, 0, 0, 0
            ],
            "parents": [
              2147483647, 0, 0, 1, 1, 2, 2, 3, 3, 4, 4, 5, 5, 6, 6, 7, 7, 8, 8,
              9, 9, 11, 11, 12, 12, 13, 13, 14, 14
            ],
            "right_children": [
              2, 4, 6, 8, 10, 12, 14, 16, 18, 20, -1, 22, 24, 26, 28, -1, -1,
              -1, -1, -1, -1, -1, -1, -1, -1, -1, -1, -1, -1
            ],
            "split_conditions": [
              5.6289967e-2, 8.126719e-2, 1.6175698e-1, 4.3817958e-1, 8.9333e-1,
              1.0370363e-1, 6.53033e-1, 4.0372714e-1, 4.840193e-1, 3.435146e-1,
              -9.072149e-2, 4.6320647e-1, 1.6442895e-1, 2.1279719e-2,
              9.715846e-1, 3.2378428e-2, -1.4698042e-1, -7.5806715e-2,
              4.2209506e-2, 1.01842746e-1, -3.2204606e-2, -2.3300895e-1,
              -1.0399106e-1, -4.7318602e-4, -5.2651547e-2, -1.1687013e-1,
              6.819002e-2, 9.076477e-3, -1.23749204e-1
            ],
            "split_indices": [
              113, 118, 97, 1, 81, 185, 227, 61, 79, 148, 0, 1, 16, 112, 215, 0,
              0, 0, 0, 0, 0, 0, 0, 0, 0, 0, 0, 0, 0
            ],
            "split_type": [
              0, 0, 0, 0, 0, 0, 0, 0, 0, 0, 0, 0, 0, 0, 0, 0, 0, 0, 0, 0, 0, 0,
              0, 0, 0, 0, 0, 0, 0
            ],
            "sum_hessian": [
              9.627024e2, 3.495096e2, 6.1319275e2, 3.1072504e2, 3.878458e1,
              3.288686e2, 2.843242e2, 2.4020236e2, 7.052269e1, 3.7541065e1,
              1.2435138, 7.4037585, 3.214648e2, 8.3467735e1, 2.0085645e2,
              2.3564975e2, 4.5526104, 4.3729176e1, 2.6793516e1, 3.5733047e1,
              1.8080171, 3.016806, 4.386953, 1.05764656e2, 2.1570016e2,
              3.2621868, 8.020555e1, 1.8207085e2, 1.8785603e1
            ],
            "tree_param": {
              "num_deleted": "0",
              "num_feature": "252",
              "num_nodes": "29",
              "size_leaf_vector": "1"
            }
          },
          {
            "base_weights": [
              1.1147645e-2, 2.95583e-1, -1.5207246e-1, 1.9754194e-1, 1.0243556,
              -4.8318994e-1, 1.267717e-1, 3.7143654e-1, -3.7051448e-1,
              1.1198541, -1.072363e-1, -3.1692538e-1, -1.230551, 2.8009322e-1,
              -5.125311e-1, 3.3328574e-2, -1.4755481e-1, -6.115786e-2,
              7.957908e-2, -6.926729e-2, 9.633607e-2, -8.23587e-3,
              -1.01129755e-1, -1.155085e-1, 4.034393e-2, -1.4231244e-1,
              2.6220672e-2, 1.6369164e-2, -9.667002e-2
            ],
            "categories": [],
            "categories_nodes": [],
            "categories_segments": [],
            "categories_sizes": [],
            "default_left": [
              0, 0, 0, 0, 0, 0, 0, 0, 0, 0, 0, 0, 0, 0, 0, 0, 0, 0, 0, 0, 0, 0,
              0, 0, 0, 0, 0, 0, 0
            ],
            "id": 15,
            "left_children": [
              1, 3, 5, 7, 9, 11, 13, 15, 17, 19, -1, 21, 23, 25, 27, -1, -1, -1,
              -1, -1, -1, -1, -1, -1, -1, -1, -1, -1, -1
            ],
            "loss_changes": [
              4.446126e1, 2.474577e1, 5.6248814e1, 3.0661835e1, 1.0797565e1,
              3.4204735e1, 3.2601875e1, 2.4498508e1, 3.9982784e1, 7.7608147, 0,
              4.630108e1, 1.934864e1, 2.6859266e1, 3.2388336e1, 0, 0, 0, 0, 0,
              0, 0, 0, 0, 0, 0, 0, 0, 0
            ],
            "parents": [
              2147483647, 0, 0, 1, 1, 2, 2, 3, 3, 4, 4, 5, 5, 6, 6, 7, 7, 8, 8,
              9, 9, 11, 11, 12, 12, 13, 13, 14, 14
            ],
            "right_children": [
              2, 4, 6, 8, 10, 12, 14, 16, 18, 20, -1, 22, 24, 26, 28, -1, -1,
              -1, -1, -1, -1, -1, -1, -1, -1, -1, -1, -1, -1
            ],
            "split_conditions": [
              5.6289967e-2, 8.199069e-2, 1.6408463e-1, 4.32007e-1, 9.056156e-1,
              4.8259246e-1, 9.9922466e-1, 5.997374e-1, 7.555888e-1,
              5.1894886e-3, -1.072363e-1, 8.1681085e-1, 7.0043045e-1,
              3.2369327e-2, 6.460817e-1, 3.3328574e-2, -1.4755481e-1,
              -6.115786e-2, 7.957908e-2, -6.926729e-2, 9.633607e-2, -8.23587e-3,
              -1.01129755e-1, -1.155085e-1, 4.034393e-2, -1.4231244e-1,
              2.6220672e-2, 1.6369164e-2, -9.667002e-2
            ],
            "split_indices": [
              113, 88, 84, 1, 83, 48, 169, 65, 35, 0, 0, 215, 9, 25, 207, 0, 0,
              0, 0, 0, 0, 0, 0, 0, 0, 0, 0, 0, 0
            ],
            "split_type": [
              0, 0, 0, 0, 0, 0, 0, 0, 0, 0, 0, 0, 0, 0, 0, 0, 0, 0, 0, 0, 0, 0,
              0, 0, 0, 0, 0, 0, 0
            ],
            "sum_hessian": [
              9.5572095e2, 3.481707e2, 6.0755023e2, 3.08006e2, 4.016468e1,
              2.7740677e2, 3.301435e2, 2.3608217e2, 7.1923836e1, 3.9111675e1,
              1.0530016, 2.2808829e2, 4.931849e1, 2.6673526e2, 6.3408222e1,
              2.3216154e2, 3.9206321, 5.615868e1, 1.5765156e1, 1.2161328,
              3.7895546e1, 1.8696136e2, 4.1126926e1, 4.406793e1, 5.250558,
              5.2133336, 2.6152194e2, 3.1573807e1, 3.1834414e1
            ],
            "tree_param": {
              "num_deleted": "0",
              "num_feature": "252",
              "num_nodes": "29",
              "size_leaf_vector": "1"
            }
          },
          {
            "base_weights": [
              1.0930808e-3, 3.3641133e-1, -1.3302596e-1, 2.5444025e-1,
              9.74586e-1, -8.052679e-1, -1.0604233e-2, 3.4379506e-1, -1.713813,
              1.3383416, -2.6854885e-1, -2.7460393e-1, -1.2545143, 8.95116e-2,
              -6.7562336e-1, 2.1824714e-2, 1.13970116e-1, -1.454906e-1,
              -3.4343377e-2, 1.11350685e-1, 2.6205825e-2, -1.3080512e-1,
              7.076095e-2, 1.8873908e-2, -1.1037633e-1, -1.2602003e-1,
              -6.820882e-3, -1.4295265e-2, 3.0739645e-2, 8.729411e-2,
              -7.145185e-2
            ],
            "categories": [],
            "categories_nodes": [],
            "categories_segments": [],
            "categories_sizes": [],
            "default_left": [
              0, 0, 0, 0, 0, 0, 0, 0, 0, 0, 0, 0, 0, 0, 0, 0, 0, 0, 0, 0, 0, 0,
              0, 0, 0, 0, 0, 0, 0, 0, 0
            ],
            "id": 16,
            "left_children": [
              1, 3, 5, 7, 9, 11, 13, 15, 17, 19, 21, 23, 25, 27, 29, -1, -1, -1,
              -1, -1, -1, -1, -1, -1, -1, -1, -1, -1, -1, -1, -1
            ],
            "loss_changes": [
              4.2274353e1, 1.3800879e1, 5.5249664e1, 4.2683304e1, 1.4022848e1,
              2.4312271e1, 3.7945354e1, 1.7241222e1, 6.4123726e-1, 8.181648e-1,
              1.3536178e1, 2.7799482e1, 2.0765541e1, 3.9233173e1, 2.9634293e1,
              0, 0, 0, 0, 0, 0, 0, 0, 0, 0, 0, 0, 0, 0, 0, 0
            ],
            "parents": [
              2147483647, 0, 0, 1, 1, 2, 2, 3, 3, 4, 4, 5, 5, 6, 6, 7, 7, 8, 8,
              9, 9, 10, 10, 11, 11, 12, 12, 13, 13, 14, 14
            ],
            "right_children": [
              2, 4, 6, 8, 10, 12, 14, 16, 18, 20, 22, 24, 26, 28, 30, -1, -1,
              -1, -1, -1, -1, -1, -1, -1, -1, -1, -1, -1, -1, -1, -1
            ],
            "split_conditions": [
              3.3749964e-2, 3.923538e-1, 4.866932e-2, 2.4465722e-1,
              1.9350371e-1, 2.5630048e-1, 9.9922466e-1, 1.3317984e-1,
              7.756597e-2, 1.5101026e-1, 3.8911738e-2, 5.797613e-2, 6.537456e-1,
              1.6407025e-1, 4.9936402e-1, 2.1824714e-2, 1.13970116e-1,
              -1.454906e-1, -3.4343377e-2, 1.11350685e-1, 2.6205825e-2,
              -1.3080512e-1, 7.076095e-2, 1.8873908e-2, -1.1037633e-1,
              -1.2602003e-1, -6.820882e-3, -1.4295265e-2, 3.0739645e-2,
              8.729411e-2, -7.145185e-2
            ],
            "split_indices": [
              105, 9, 114, 9, 177, 36, 169, 9, 160, 104, 87, 90, 27, 86, 203, 0,
              0, 0, 0, 0, 0, 0, 0, 0, 0, 0, 0, 0, 0, 0, 0
            ],
            "split_type": [
              0, 0, 0, 0, 0, 0, 0, 0, 0, 0, 0, 0, 0, 0, 0, 0, 0, 0, 0, 0, 0, 0,
              0, 0, 0, 0, 0, 0, 0, 0, 0
            ],
            "sum_hessian": [
              9.3800806e2, 2.6755957e2, 6.704484e2, 2.3834392e2, 2.9215658e1,
              1.024265e2, 5.68022e2, 2.2878296e2, 9.560963, 2.2542791e1,
              6.6728663, 4.7696804e1, 5.4729694e1, 4.9444998e2, 7.357197e1,
              2.1585837e2, 1.2924593e1, 8.455194, 1.105768, 2.1050652e1,
              1.4921397, 2.8624725, 3.8103938, 3.3162907e1, 1.4533894e1,
              4.267606e1, 1.2053633e1, 2.59083e2, 2.3536699e2, 7.6247993,
              6.594717e1
            ],
            "tree_param": {
              "num_deleted": "0",
              "num_feature": "252",
              "num_nodes": "31",
              "size_leaf_vector": "1"
            }
          },
          {
            "base_weights": [
              -6.087079e-3, 2.827803e-2, -1.1155225, 2.1112958e-1,
              -1.3736953e-1, -1.359214, 8.770982e-2, 1.62993e-1, 1.0148664,
              -3.1510398e-1, 3.971983e-1, 5.800157e-2, -1.5097963, 1.6815232e-2,
              -7.503222e-2, 1.0040161e-1, -7.789369e-2, -3.1030526e-2,
              8.293409e-2, 1.24932015e-2, 9.029136e-2, -1.3056621e-2,
              -1.2697162e-1
            ],
            "categories": [],
            "categories_nodes": [],
            "categories_segments": [],
            "categories_sizes": [],
            "default_left": [
              0, 0, 0, 0, 0, 0, 0, 0, 0, 0, 0, 0, 0, 0, 0, 0, 0, 0, 0, 0, 0, 0,
              0
            ],
            "id": 17,
            "left_children": [
              1, 3, 5, 7, 9, 11, -1, 13, 15, 17, 19, -1, 21, -1, -1, -1, -1, -1,
              -1, -1, -1, -1, -1
            ],
            "loss_changes": [
              3.555287e1, 2.7430435e1, 1.6591877e1, 1.648633e1, 4.5281105e1,
              9.155212, 0, 2.1358635e1, 1.2744942e1, 3.5546906e1, 2.0809412e1,
              0, 2.269577, 0, 0, 0, 0, 0, 0, 0, 0, 0, 0
            ],
            "parents": [
              2147483647, 0, 0, 1, 1, 2, 2, 3, 3, 4, 4, 5, 5, 7, 7, 8, 8, 9, 9,
              10, 10, 12, 12
            ],
            "right_children": [
              2, 4, 6, 8, 10, 12, -1, 14, 16, 18, 20, -1, 22, -1, -1, -1, -1,
              -1, -1, -1, -1, -1, -1
            ],
            "split_conditions": [
              1, 2.6292285e-1, 5.946128e-1, 4.7605085e-1, 4.8516834e-1,
              2.3820322e-2, 8.770982e-2, 3.884719e-1, 9.1990894e-1,
              3.8502112e-1, 1.8878332e-1, 5.800157e-2, 6.5825544e-2,
              1.6815232e-2, -7.503222e-2, 1.0040161e-1, -7.789369e-2,
              -3.1030526e-2, 8.293409e-2, 1.24932015e-2, 9.029136e-2,
              -1.3056621e-2, -1.2697162e-1
            ],
            "split_indices": [
              217, 18, 28, 79, 53, 100, 0, 71, 201, 94, 86, 0, 38, 0, 0, 0, 0,
              0, 0, 0, 0, 0, 0
            ],
            "split_type": [
              0, 0, 0, 0, 0, 0, 0, 0, 0, 0, 0, 0, 0, 0, 0, 0, 0, 0, 0, 0, 0, 0,
              0
            ],
            "sum_hessian": [
              9.3068567e2, 9.0366876e2, 2.701691e1, 4.2939865e2, 4.742701e2,
              2.4683004e1, 2.3339052, 4.0626956e2, 2.3129084e1, 3.562378e2,
              1.1803229e2, 1.406106, 2.32769e1, 3.9034387e2, 1.5925683e1,
              2.096592e1, 2.1631625, 3.3871503e2, 1.7522793e1, 8.9690125e1,
              2.8342163e1, 1.4333496, 2.184355e1
            ],
            "tree_param": {
              "num_deleted": "0",
              "num_feature": "252",
              "num_nodes": "23",
              "size_leaf_vector": "1"
            }
          },
          {
            "base_weights": [
              -7.2698025e-3, 1.8070875e-1, -2.2699568e-1, 7.848521e-2,
              6.571103e-1, -1.1383165, -4.013214e-2, 2.8322896e-1,
              -3.5866815e-1, 9.256248e-1, -1.1425968, -1.3918039, -3.33292e-1,
              -1.19789965e-1, 1.0269941, 1.9337075e-2, 9.653082e-2,
              -7.176607e-2, 4.2023454e-2, -1.6084611e-1, 8.2762584e-2,
              -1.3872457e-1, 4.720795e-2, 6.4218335e-2, -1.15759216e-1,
              6.682902e-2, -6.440715e-2, 2.3561874e-3, -6.058975e-2,
              9.087348e-2, -5.5863827e-2
            ],
            "categories": [],
            "categories_nodes": [],
            "categories_segments": [],
            "categories_sizes": [],
            "default_left": [
              0, 0, 0, 0, 0, 0, 0, 0, 0, 0, 0, 0, 0, 0, 0, 0, 0, 0, 0, 0, 0, 0,
              0, 0, 0, 0, 0, 0, 0, 0, 0
            ],
            "id": 18,
            "left_children": [
              1, 3, 5, 7, 9, 11, 13, 15, 17, 19, 21, 23, 25, 27, 29, -1, -1, -1,
              -1, -1, -1, -1, -1, -1, -1, -1, -1, -1, -1, -1, -1
            ],
            "loss_changes": [
              3.8679077e1, 2.4527472e1, 7.347857e1, 3.7396236e1, 4.408085e1,
              1.4520317e1, 3.0667288e1, 1.0608368e1, 6.393579e1, 2.7029854e1,
              1.3327386e1, 7.88665, 1.1093019e1, 3.192366e1, 5.503351, 0, 0, 0,
              0, 0, 0, 0, 0, 0, 0, 0, 0, 0, 0, 0, 0
            ],
            "parents": [
              2147483647, 0, 0, 1, 1, 2, 2, 3, 3, 4, 4, 5, 5, 6, 6, 7, 7, 8, 8,
              9, 9, 10, 10, 11, 11, 12, 12, 13, 13, 14, 14
            ],
            "right_children": [
              2, 4, 6, 8, 10, 12, 14, 16, 18, 20, 22, 24, 26, 28, 30, -1, -1,
              -1, -1, -1, -1, -1, -1, -1, -1, -1, -1, -1, -1, -1, -1
            ],
            "split_conditions": [
              5.4248935e-1, 4.1748583e-1, 5.0684667e-1, 2.0536089e-1,
              8.2179755e-1, 2.2628836e-1, 3.5162333e-1, 6.5840495e-1,
              4.030285e-1, 6.840624e-3, 2.0939144e-1, 4.156878e-2, 2.0937708e-1,
              9.494985e-1, 4.5493847e-1, 1.9337075e-2, 9.653082e-2,
              -7.176607e-2, 4.2023454e-2, -1.6084611e-1, 8.2762584e-2,
              -1.3872457e-1, 4.720795e-2, 6.4218335e-2, -1.15759216e-1,
              6.682902e-2, -6.440715e-2, 2.3561874e-3, -6.058975e-2,
              9.087348e-2, -5.5863827e-2
            ],
            "split_indices": [
              211, 228, 217, 7, 201, 86, 94, 20, 51, 17, 100, 129, 27, 219, 134,
              0, 0, 0, 0, 0, 0, 0, 0, 0, 0, 0, 0, 0, 0, 0, 0
            ],
            "split_type": [
              0, 0, 0, 0, 0, 0, 0, 0, 0, 0, 0, 0, 0, 0, 0, 0, 0, 0, 0, 0, 0, 0,
              0, 0, 0, 0, 0, 0, 0, 0, 0
            ],
            "sum_hessian": [
              9.344612e2, 5.0370883e2, 4.3075235e2, 4.1567944e2, 8.8029396e1,
              7.2429054e1, 3.583233e2, 2.8333136e2, 1.3234807e2, 7.702328e1,
              1.1006118e1, 5.4529747e1, 1.7899305e1, 3.3425955e2, 2.4063745e1,
              2.723486e2, 1.0982778e1, 8.224128e1, 5.0106785e1, 2.1302176,
              7.489306e1, 8.204654, 2.801464, 1.0053483, 5.35244e1, 4.9262514,
              1.2973055e1, 2.7163116e2, 6.2628395e1, 2.2956049e1, 1.1076971
            ],
            "tree_param": {
              "num_deleted": "0",
              "num_feature": "252",
              "num_nodes": "31",
              "size_leaf_vector": "1"
            }
          },
          {
            "base_weights": [
              5.209465e-3, 1.7486669e-1, -2.1348512e-1, 2.6642084e-1,
              -4.8260805e-1, -8.710554e-1, 6.8007e-2, 8.486494e-2, 6.4959496e-1,
              -7.2924495e-1, 1.057151, 9.746328e-1, -9.629098e-1,
              -1.00255035e-1, 7.448435e-1, 1.9056058e-2, -6.729134e-2,
              1.0323569e-2, 8.658991e-2, -3.5545868e-3, -1.24775276e-1,
              9.090114e-2, 1.9502588e-2, -1.8397726e-2, 1.0159961e-1,
              -8.7572604e-2, 4.6183234e-3, 7.262494e-3, -9.483364e-2,
              7.6380946e-2, -7.260459e-2
            ],
            "categories": [],
            "categories_nodes": [],
            "categories_segments": [],
            "categories_sizes": [],
            "default_left": [
              0, 0, 0, 0, 0, 0, 0, 0, 0, 0, 0, 0, 0, 0, 0, 0, 0, 0, 0, 0, 0, 0,
              0, 0, 0, 0, 0, 0, 0, 0, 0
            ],
            "id": 19,
            "left_children": [
              1, 3, 5, 7, 9, 11, 13, 15, 17, 19, 21, 23, 25, 27, 29, -1, -1, -1,
              -1, -1, -1, -1, -1, -1, -1, -1, -1, -1, -1, -1, -1
            ],
            "loss_changes": [
              3.3909443e1, 3.1107464e1, 7.396484e1, 3.141618e1, 2.4795053e1,
              2.1241554e1, 3.2021305e1, 4.3947098e1, 3.2591194e1, 3.1276772e1,
              3.112898e-1, 2.4888854, 1.547084e1, 4.68643e1, 2.0280773e1, 0, 0,
              0, 0, 0, 0, 0, 0, 0, 0, 0, 0, 0, 0, 0, 0
            ],
            "parents": [
              2147483647, 0, 0, 1, 1, 2, 2, 3, 3, 4, 4, 5, 5, 6, 6, 7, 7, 8, 8,
              9, 9, 10, 10, 11, 11, 12, 12, 13, 13, 14, 14
            ],
            "right_children": [
              2, 4, 6, 8, 10, 12, 14, 16, 18, 20, 22, 24, 26, 28, 30, -1, -1,
              -1, -1, -1, -1, -1, -1, -1, -1, -1, -1, -1, -1, -1, -1
            ],
            "split_conditions": [
              5.694992e-1, 5.381292e-1, 5.6858474e-1, 1.8057847e-1,
              6.8964857e-1, 2.3225289e-2, 9.31103e-1, 1.1648725e-1, 3.059506e-1,
              6.806566e-1, 2.054951e-1, 3.3328667e-1, 8.804601e-1, 8.838372e-1,
              4.2643696e-1, 1.9056058e-2, -6.729134e-2, 1.0323569e-2,
              8.658991e-2, -3.5545868e-3, -1.24775276e-1, 9.090114e-2,
              1.9502588e-2, -1.8397726e-2, 1.0159961e-1, -8.7572604e-2,
              4.6183234e-3, 7.262494e-3, -9.483364e-2, 7.6380946e-2,
              -7.260459e-2
            ],
            "split_indices": [
              211, 50, 231, 232, 55, 103, 248, 49, 37, 33, 222, 2, 192, 250,
              141, 0, 0, 0, 0, 0, 0, 0, 0, 0, 0, 0, 0, 0, 0, 0, 0
            ],
            "split_type": [
              0, 0, 0, 0, 0, 0, 0, 0, 0, 0, 0, 0, 0, 0, 0, 0, 0, 0, 0, 0, 0, 0,
              0, 0, 0, 0, 0, 0, 0, 0, 0
            ],
            "sum_hessian": [
              9.119183e2, 5.136462e2, 3.982721e2, 4.5138504e2, 6.2261124e1,
              1.187577e2, 2.795144e2, 3.0709735e2, 1.4428766e2, 5.4118824e1,
              8.142302, 5.174409, 1.1358329e2, 2.2454439e2, 5.4970016e1,
              2.6410712e2, 4.2990253e1, 6.6091e1, 7.819666e1, 3.0237505e1,
              2.3881317e1, 7.0587397, 1.0835623, 1.0625012, 4.1119075,
              1.0053354e2, 1.3049753e1, 1.9171124e2, 3.283315e1, 4.914847e1,
              5.821544
            ],
            "tree_param": {
              "num_deleted": "0",
              "num_feature": "252",
              "num_nodes": "31",
              "size_leaf_vector": "1"
            }
          },
          {
            "base_weights": [
              1.0291152e-2, -3.47735e-2, 7.001435e-1, 1.3038349e-1,
              -3.4847444e-1, 9.50675e-1, -4.8666245e-1, 1.9868068e-1,
              -8.1198245e-1, -9.593102e-1, -5.2583944e-2, 1.0518926,
              -3.1759208e-1, -9.640882e-1, 7.8489475e-2, 1.902045e-2,
              -7.839611e-2, -1.1854158e-1, 3.4911495e-2, 6.2984363e-3,
              -9.09057e-2, 1.2645679e-2, -7.291504e-2, -3.0464748e-2,
              8.912464e-2, -1.1010076e-1, 7.1802504e-2, 6.570792e-2,
              -1.1391025e-1
            ],
            "categories": [],
            "categories_nodes": [],
            "categories_segments": [],
            "categories_sizes": [],
            "default_left": [
              0, 0, 0, 0, 0, 0, 0, 0, 0, 0, 0, 0, 0, 0, 0, 0, 0, 0, 0, 0, 0, 0,
              0, 0, 0, 0, 0, 0, 0
            ],
            "id": 20,
            "left_children": [
              1, 3, 5, 7, 9, 11, 13, 15, 17, 19, 21, 23, 25, 27, -1, -1, -1, -1,
              -1, -1, -1, -1, -1, -1, -1, -1, -1, -1, -1
            ],
            "loss_changes": [
              2.835915e1, 4.442081e1, 1.709431e1, 3.632093e1, 5.339062e1,
              6.3065376, 8.241629, 2.4396294e1, 3.255636e1, 1.7808022e1,
              3.6373337e1, 4.2823524, 6.6468167, 8.0327015, 0, 0, 0, 0, 0, 0, 0,
              0, 0, 0, 0, 0, 0, 0, 0
            ],
            "parents": [
              2147483647, 0, 0, 1, 1, 2, 2, 3, 3, 4, 4, 5, 5, 6, 6, 7, 7, 8, 8,
              9, 9, 10, 10, 11, 11, 12, 12, 13, 13
            ],
            "right_children": [
              2, 4, 6, 8, 10, 12, 14, 16, 18, 20, 22, 24, 26, 28, -1, -1, -1,
              -1, -1, -1, -1, -1, -1, -1, -1, -1, -1, -1, -1
            ],
            "split_conditions": [
              7.752341e-1, 4.5997015e-1, 1, 6.343946e-1, 3.786022e-1,
              9.2574096e-1, 3.57713e-1, 9.646281e-1, 1.3737072e-1, 1.2746873e-1,
              9.353827e-1, 1.6334038e-2, 7.648149e-1, 4.4623965e-1,
              7.8489475e-2, 1.902045e-2, -7.839611e-2, -1.1854158e-1,
              3.4911495e-2, 6.2984363e-3, -9.09057e-2, 1.2645679e-2,
              -7.291504e-2, -3.0464748e-2, 8.912464e-2, -1.1010076e-1,
              7.1802504e-2, 6.570792e-2, -1.1391025e-1
            ],
            "split_indices": [
              35, 1, 247, 75, 7, 216, 129, 215, 103, 236, 217, 146, 1, 3, 0, 0,
              0, 0, 0, 0, 0, 0, 0, 0, 0, 0, 0, 0, 0
            ],
            "split_type": [
              0, 0, 0, 0, 0, 0, 0, 0, 0, 0, 0, 0, 0, 0, 0, 0, 0, 0, 0, 0, 0, 0,
              0, 0, 0, 0, 0, 0, 0
            ],
            "sum_hessian": [
              9.1044e2, 8.555037e2, 5.493625e1, 5.608253e2, 2.9467844e2,
              4.5525005e1, 9.411241, 5.236625e2, 3.7162834e1, 9.5430275e1,
              1.9924817e2, 4.231828e1, 3.2067256, 7.360314, 2.0509264,
              5.0763135e2, 1.6031109e1, 2.406458e1, 1.3098252e1, 1.3983362e1,
              8.1446915e1, 1.6065866e2, 3.8589508e1, 1.5466832, 4.07716e1,
              1.6428208, 1.5639046, 1.346251, 6.014063
            ],
            "tree_param": {
              "num_deleted": "0",
              "num_feature": "252",
              "num_nodes": "29",
              "size_leaf_vector": "1"
            }
          },
          {
            "base_weights": [
              4.88298e-3, 3.196046e-2, -9.5457125e-1, -5.9525166e-3,
              6.4058447e-1, -1.1850821, 8.4643506e-2, 1.4236453e-1,
              -2.4097764e-1, 9.1678447e-1, -3.6322522e-1, 6.1807573e-2,
              -1.3479172, 1.4561672e-2, -1.1311094e-1, -6.367912e-2,
              2.4986954e-3, -5.4491915e-2, 8.007778e-2, -8.23859e-2,
              6.1385956e-2, -1.3114502e-2, -1.1467789e-1
            ],
            "categories": [],
            "categories_nodes": [],
            "categories_segments": [],
            "categories_sizes": [],
            "default_left": [
              0, 0, 0, 0, 0, 0, 0, 0, 0, 0, 0, 0, 0, 0, 0, 0, 0, 0, 0, 0, 0, 0,
              0
            ],
            "id": 21,
            "left_children": [
              1, 3, 5, 7, 9, 11, -1, 13, 15, 17, 19, -1, 21, -1, -1, -1, -1, -1,
              -1, -1, -1, -1, -1
            ],
            "loss_changes": [
              2.348033e1, 2.0282307e1, 1.2762503e1, 2.8906485e1, 1.4623449e1,
              8.287012, 0, 3.1635838e1, 4.8496727e1, 6.1577034, 9.711738, 0,
              1.9275398, 0, 0, 0, 0, 0, 0, 0, 0, 0, 0
            ],
            "parents": [
              2147483647, 0, 0, 1, 1, 2, 2, 3, 3, 4, 4, 5, 5, 7, 7, 8, 8, 9, 9,
              10, 10, 12, 12
            ],
            "right_children": [
              2, 4, 6, 8, 10, 12, -1, 14, 16, 18, 20, -1, 22, -1, -1, -1, -1,
              -1, -1, -1, -1, -1, -1
            ],
            "split_conditions": [
              1, 7.752341e-1, 5.946128e-1, 4.182592e-1, 9.983083e-1,
              2.3820322e-2, 8.4643506e-2, 7.057149e-1, 7.2709695e-2,
              1.722417e-2, 7.414933e-1, 6.1807573e-2, 6.198982e-2, 1.4561672e-2,
              -1.1311094e-1, -6.367912e-2, 2.4986954e-3, -5.4491915e-2,
              8.007778e-2, -8.23859e-2, 6.1385956e-2, -1.3114502e-2,
              -1.1467789e-1
            ],
            "split_indices": [
              217, 35, 28, 1, 247, 100, 0, 81, 88, 150, 210, 0, 40, 0, 0, 0, 0,
              0, 0, 0, 0, 0, 0
            ],
            "split_type": [
              0, 0, 0, 0, 0, 0, 0, 0, 0, 0, 0, 0, 0, 0, 0, 0, 0, 0, 0, 0, 0, 0,
              0
            ],
            "sum_hessian": [
              9.0162427e2, 8.778174e2, 2.3806858e1, 8.2727423e2, 5.0543125e1,
              2.172931e1, 2.0775492, 5.0743933e2, 3.1983493e2, 3.9704937e1,
              1.0838188e1, 1.3810511, 2.0348257e1, 4.956912e2, 1.1748158e1,
              1.046138e2, 2.1522113e2, 1.6322898, 3.8072647e1, 6.874133,
              3.9640553, 1.5678202, 1.8780437e1
            ],
            "tree_param": {
              "num_deleted": "0",
              "num_feature": "252",
              "num_nodes": "23",
              "size_leaf_vector": "1"
            }
          },
          {
            "base_weights": [
              -6.329816e-4, 2.2511062e-1, -1.2554738e-1, 1.2905881e-1, 1.027234,
              -4.1262975e-1, 9.83585e-2, 6.815653e-2, 1.2190801, 1.1140219,
              -6.9961764e-2, -2.0734863e-1, -8.693163e-1, -4.751464e-2,
              5.7318753e-1, 1.636094e-2, -3.9451018e-2, 3.2781452e-2,
              1.01972766e-1, 9.738372e-2, -2.6403777e-2, -1.3655168e-1,
              -8.221462e-3, -9.443396e-2, -2.5207972e-2, 1.1596794e-2,
              -5.6378715e-2, 5.7473905e-2, -7.38835e-2
            ],
            "categories": [],
            "categories_nodes": [],
            "categories_segments": [],
            "categories_sizes": [],
            "default_left": [
              0, 0, 0, 0, 0, 0, 0, 0, 0, 0, 0, 0, 0, 0, 0, 0, 0, 0, 0, 0, 0, 0,
              0, 0, 0, 0, 0, 0, 0
            ],
            "id": 22,
            "left_children": [
              1, 3, 5, 7, 9, 11, 13, 15, 17, 19, -1, 21, 23, 25, 27, -1, -1, -1,
              -1, -1, -1, -1, -1, -1, -1, -1, -1, -1, -1
            ],
            "loss_changes": [
              2.5478283e1, 2.466556e1, 3.7429558e1, 1.9074707e1, 6.631607,
              2.373204e1, 2.2718128e1, 2.1100292e1, 1.6192436e-1, 5.356144, 0,
              2.7626497e1, 1.321225e1, 3.192024e1, 1.7416073e1, 0, 0, 0, 0, 0,
              0, 0, 0, 0, 0, 0, 0, 0, 0
            ],
            "parents": [
              2147483647, 0, 0, 1, 1, 2, 2, 3, 3, 4, 4, 5, 5, 6, 6, 7, 7, 8, 8,
              9, 9, 11, 11, 12, 12, 13, 13, 14, 14
            ],
            "right_children": [
              2, 4, 6, 8, 10, 12, 14, 16, 18, 20, -1, 22, 24, 26, 28, -1, -1,
              -1, -1, -1, -1, -1, -1, -1, -1, -1, -1, -1, -1
            ],
            "split_conditions": [
              5.7747792e-2, 7.990817e-2, 5.161806e-1, 8.248637e-1, 7.9682726e-1,
              4.878418e-1, 9.1242796e-1, 3.7368762e-1, 7.129189e-2, 9.296006e-1,
              -6.9961764e-2, 1.4604574e-1, 5.293949e-1, 8.2928896e-1,
              7.9097944e-1, 1.636094e-2, -3.9451018e-2, 3.2781452e-2,
              1.01972766e-1, 9.738372e-2, -2.6403777e-2, -1.3655168e-1,
              -8.221462e-3, -9.443396e-2, -2.5207972e-2, 1.1596794e-2,
              -5.6378715e-2, 5.7473905e-2, -7.38835e-2
            ],
            "split_indices": [
              113, 118, 189, 36, 47, 173, 194, 3, 67, 250, 0, 177, 224, 168, 8,
              0, 0, 0, 0, 0, 0, 0, 0, 0, 0, 0, 0, 0, 0
            ],
            "split_type": [
              0, 0, 0, 0, 0, 0, 0, 0, 0, 0, 0, 0, 0, 0, 0, 0, 0, 0, 0, 0, 0, 0,
              0, 0, 0, 0, 0, 0, 0
            ],
            "sum_hessian": [
              9.0152704e2, 3.2086395e2, 5.806631e2, 2.8758716e2, 3.3276787e1,
              2.540668e2, 3.2659628e2, 2.733755e2, 1.4211662e1, 3.222059e1,
              1.0561959, 1.762819e2, 7.77849e1, 2.5053032e2, 7.6065956e1,
              2.2045581e2, 5.291969e1, 1.4513094, 1.2760353e1, 3.021664e1,
              2.0039494, 1.0493745e1, 1.6578816e2, 4.9095406e1, 2.868949e1,
              1.943825e2, 5.614781e1, 6.981174e1, 6.2542214
            ],
            "tree_param": {
              "num_deleted": "0",
              "num_feature": "252",
              "num_nodes": "29",
              "size_leaf_vector": "1"
            }
          },
          {
            "base_weights": [
              1.6686741e-2, -1.5107492e-2, 9.16853e-1, 2.3631601e-1,
              -1.5996833e-1, 1.0016613, -6.1421826e-2, 1.5063122e-1,
              9.9659115e-1, 7.8259006e-2, -3.6261734e-1, 2.8998014e-1,
              1.1126133, 6.6994904e-3, 7.756342e-2, 8.981759e-2, -1.0634635e-1,
              -2.559365e-2, 2.5058305e-2, -6.273961e-2, -6.907345e-3,
              -9.61751e-2, 7.528821e-2, 4.7985804e-3, 9.327507e-2
            ],
            "categories": [],
            "categories_nodes": [],
            "categories_segments": [],
            "categories_sizes": [],
            "default_left": [
              0, 0, 0, 0, 0, 0, 0, 0, 0, 0, 0, 0, 0, 0, 0, 0, 0, 0, 0, 0, 0, 0,
              0, 0, 0
            ],
            "id": 23,
            "left_children": [
              1, 3, 5, 7, 9, 11, -1, 13, 15, 17, 19, 21, 23, -1, -1, -1, -1, -1,
              -1, -1, -1, -1, -1, -1, -1
            ],
            "loss_changes": [
              2.5317282e1, 3.1175783e1, 5.0806046, 2.0234982e1, 2.6243134e1,
              1.9803562, 0, 1.5387629e1, 1.0738472e1, 2.35294e1, 3.4131718e1,
              6.2673707, 1.3265839, 0, 0, 0, 0, 0, 0, 0, 0, 0, 0, 0, 0
            ],
            "parents": [
              2147483647, 0, 0, 1, 1, 2, 2, 3, 3, 4, 4, 5, 5, 7, 7, 8, 8, 9, 9,
              10, 10, 11, 11, 12, 12
            ],
            "right_children": [
              2, 4, 6, 8, 10, 12, -1, 14, 16, 18, 20, 22, 24, -1, -1, -1, -1,
              -1, -1, -1, -1, -1, -1, -1, -1
            ],
            "split_conditions": [
              3.5162333e-1, 5.6289967e-2, 4.6645027e-1, 8.126719e-2,
              3.089741e-1, 3.5202402e-1, -6.1421826e-2, 7.4538267e-1,
              8.801641e-1, 1.2945022e-1, 3.2698706e-1, 2.0644999e-1,
              8.653882e-1, 6.6994904e-3, 7.756342e-2, 8.981759e-2,
              -1.0634635e-1, -2.559365e-2, 2.5058305e-2, -6.273961e-2,
              -6.907345e-3, -9.61751e-2, 7.528821e-2, 4.7985804e-3, 9.327507e-2
            ],
            "split_indices": [
              94, 113, 140, 118, 6, 96, 0, 34, 71, 105, 49, 161, 186, 0, 0, 0,
              0, 0, 0, 0, 0, 0, 0, 0, 0
            ],
            "split_type": [
              0, 0, 0, 0, 0, 0, 0, 0, 0, 0, 0, 0, 0, 0, 0, 0, 0, 0, 0, 0, 0, 0,
              0, 0, 0
            ],
            "sum_hessian": [
              8.8311414e2, 8.53936e2, 2.9178143e1, 3.1192358e2, 5.420124e2,
              2.8165625e1, 1.0125176, 2.8140652e2, 3.0517046e1, 2.4941838e2,
              2.9259402e2, 4.286196, 2.3879429e1, 2.6117627e2, 2.0230263e1,
              2.9438e1, 1.0790465, 9.242817e1, 1.5699022e2, 1.1509989e2,
              1.7749413e2, 1.0450153, 3.241181, 1.2538272, 2.2625603e1
            ],
            "tree_param": {
              "num_deleted": "0",
              "num_feature": "252",
              "num_nodes": "25",
              "size_leaf_vector": "1"
            }
          },
          {
            "base_weights": [
              1.275216e-2, 3.780627e-2, -8.734333e-1, 7.019692e-2, -6.521412e-1,
              -1.1204765, 8.39872e-2, 2.0693194e-2, 7.0357317e-1, -1.1901114,
              5.375829e-1, 4.9903657e-2, -1.2845787, 3.4803173e-3, -9.274327e-2,
              8.2222596e-2, -6.289638e-2, -1.15710475e-1, 1.058785e-2,
              7.382183e-2, -5.346759e-2, -1.3910532e-2, -1.09468505e-1
            ],
            "categories": [],
            "categories_nodes": [],
            "categories_segments": [],
            "categories_sizes": [],
            "default_left": [
              0, 0, 0, 0, 0, 0, 0, 0, 0, 0, 0, 0, 0, 0, 0, 0, 0, 0, 0, 0, 0, 0,
              0
            ],
            "id": 24,
            "left_children": [
              1, 3, 5, 7, 9, 11, -1, 13, 15, 17, 19, -1, 21, -1, -1, -1, -1, -1,
              -1, -1, -1, -1, -1
            ],
            "loss_changes": [
              1.9570324e1, 1.919164e1, 1.2691362e1, 2.5671251e1, 2.5289968e1,
              7.0872707, 0, 2.052976e1, 2.9477043e1, 9.285114, 6.5073223, 0,
              1.6602249, 0, 0, 0, 0, 0, 0, 0, 0, 0, 0
            ],
            "parents": [
              2147483647, 0, 0, 1, 1, 2, 2, 3, 3, 4, 4, 5, 5, 7, 7, 8, 8, 9, 9,
              10, 10, 12, 12
            ],
            "right_children": [
              2, 4, 6, 8, 10, 12, -1, 14, 16, 18, 20, -1, 22, -1, -1, -1, -1,
              -1, -1, -1, -1, -1, -1
            ],
            "split_conditions": [
              1, 9.8866624e-1, 5.946128e-1, 7.564445e-1, 3.6378226e-1,
              2.5923012e-2, 8.39872e-2, 7.799623e-1, 8.48562e-1, 9.9160117e-1,
              9.888713e-1, 4.9903657e-2, 6.5825544e-2, 3.4803173e-3,
              -9.274327e-2, 8.2222596e-2, -6.289638e-2, -1.15710475e-1,
              1.058785e-2, 7.382183e-2, -5.346759e-2, -1.3910532e-2,
              -1.09468505e-1
            ],
            "split_indices": [
              217, 245, 28, 29, 127, 108, 0, 83, 8, 183, 201, 0, 38, 0, 0, 0, 0,
              0, 0, 0, 0, 0, 0
            ],
            "split_type": [
              0, 0, 0, 0, 0, 0, 0, 0, 0, 0, 0, 0, 0, 0, 0, 0, 0, 0, 0, 0, 0, 0,
              0
            ],
            "sum_hessian": [
              8.7895624e2, 8.5572076e2, 2.3235476e1, 8.1820703e2, 3.7513737e1,
              2.0960522e1, 2.2749538, 7.598509e2, 5.835612e1, 2.5832468e1,
              1.1681268e1, 1.5615246, 1.9398996e1, 7.463853e2, 1.3465558e1,
              4.8180965e1, 1.0175154e1, 2.156068e1, 4.271787, 9.031337,
              2.649931, 1.5763096, 1.7822687e1
            ],
            "tree_param": {
              "num_deleted": "0",
              "num_feature": "252",
              "num_nodes": "23",
              "size_leaf_vector": "1"
            }
          },
          {
            "base_weights": [
              -1.6740855e-2, -5.236808e-2, 6.232858e-1, 8.527315e-2,
              -3.0572912e-1, 7.6649904e-1, -7.313976e-1, 1.48521e-1,
              -8.240342e-1, -8.013988e-1, -6.469694e-2, -4.0720433e-2,
              8.361274e-1, -1.09818526e-1, 5.0599232e-2, 1.9993891e-3,
              3.4545127e-2, -1.0237665e-1, 6.32525e-2, -8.0331884e-2,
              1.3102152e-2, -1.7688543e-2, 7.864667e-2, 7.371858e-2,
              -2.7976278e-2
            ],
            "categories": [],
            "categories_nodes": [],
            "categories_segments": [],
            "categories_sizes": [],
            "default_left": [
              0, 0, 0, 0, 0, 0, 0, 0, 0, 0, 0, 0, 0, 0, 0, 0, 0, 0, 0, 0, 0, 0,
              0, 0, 0
            ],
            "id": 25,
            "left_children": [
              1, 3, 5, 7, 9, 11, 13, 15, 17, 19, 21, -1, 23, -1, -1, -1, -1, -1,
              -1, -1, -1, -1, -1, -1, -1
            ],
            "loss_changes": [
              2.0029415e1, 2.9027815e1, 9.547026, 3.1159592e1, 3.4950394e1,
              4.189348, 5.1895723, 1.7676233e1, 2.6946835e1, 1.8904907e1,
              3.270016e1, 0, 4.427992, 0, 0, 0, 0, 0, 0, 0, 0, 0, 0, 0, 0
            ],
            "parents": [
              2147483647, 0, 0, 1, 1, 2, 2, 3, 3, 4, 4, 5, 5, 6, 6, 7, 7, 8, 8,
              9, 9, 10, 10, 12, 12
            ],
            "right_children": [
              2, 4, 6, 8, 10, 12, 14, 16, 18, 20, 22, -1, 24, -1, -1, -1, -1,
              -1, -1, -1, -1, -1, -1, -1, -1
            ],
            "split_conditions": [
              7.752341e-1, 4.5736137e-1, 9.740496e-1, 6.470389e-1, 3.786022e-1,
              1.722417e-2, 9.7386426e-1, 3.1144968e-1, 1.714697e-1, 5.627601e-1,
              9.08619e-1, -4.0720433e-2, 8.19534e-1, -1.09818526e-1,
              5.0599232e-2, 1.9993891e-3, 3.4545127e-2, -1.0237665e-1,
              6.32525e-2, -8.0331884e-2, 1.3102152e-2, -1.7688543e-2,
              7.864667e-2, 7.371858e-2, -2.7976278e-2
            ],
            "split_indices": [
              35, 1, 224, 75, 7, 150, 220, 35, 95, 18, 194, 0, 47, 0, 0, 0, 0,
              0, 0, 0, 0, 0, 0, 0, 0
            ],
            "split_type": [
              0, 0, 0, 0, 0, 0, 0, 0, 0, 0, 0, 0, 0, 0, 0, 0, 0, 0, 0, 0, 0, 0,
              0, 0, 0
            ],
            "sum_hessian": [
              8.759603e2, 8.3064075e2, 4.5319622e1, 5.386672e2, 2.9197354e2,
              4.1379303e1, 3.9403174, 5.044185e2, 3.424871e1, 9.4766495e1,
              1.9720705e2, 1.8152815, 3.9564022e1, 2.675668, 1.2646494,
              3.5201303e2, 1.5240544e2, 2.687259e1, 7.376123, 7.828184e1,
              1.6484661e1, 1.7227872e2, 2.4928333e1, 3.7115417e1, 2.4486063
            ],
            "tree_param": {
              "num_deleted": "0",
              "num_feature": "252",
              "num_nodes": "25",
              "size_leaf_vector": "1"
            }
          },
          {
            "base_weights": [
              1.2950397e-2, -9.057647e-3, 1.0226194, 1.3254933e-1,
              -1.9545133e-1, 8.896852e-2, -2.1281974e-2, 1.5938279e-1,
              -1.4565451, -7.365297e-1, 3.920516e-2, 4.9770954e-3, 4.6111695e-2,
              -1.4093855e-1, 1.810358e-2, -7.328656e-2, -4.288555e-3,
              2.8178386e-2, -2.789958e-2
            ],
            "categories": [],
            "categories_nodes": [],
            "categories_segments": [],
            "categories_sizes": [],
            "default_left": [
              0, 0, 0, 0, 0, 0, 0, 0, 0, 0, 0, 0, 0, 0, 0, 0, 0, 0, 0
            ],
            "id": 26,
            "left_children": [
              1, 3, 5, 7, 9, -1, -1, 11, 13, 15, 17, -1, -1, -1, -1, -1, -1, -1,
              -1
            ],
            "loss_changes": [
              1.9360287e1, 2.2547512e1, 2.4391327, 2.0933556e1, 4.685221e1, 0,
              0, 1.9346138e1, 4.589672, 1.3636002e1, 3.1475239e1, 0, 0, 0, 0, 0,
              0, 0, 0
            ],
            "parents": [
              2147483647, 0, 0, 1, 1, 2, 2, 3, 3, 4, 4, 7, 7, 8, 8, 9, 9, 10, 10
            ],
            "right_children": [
              2, 4, 6, 8, 10, -1, -1, 12, 14, 16, 18, -1, -1, -1, -1, -1, -1,
              -1, -1
            ],
            "split_conditions": [
              3.8502112e-1, 5.694992e-1, 1, 3.5521764e-1, 5.7115775e-1,
              8.896852e-2, -2.1281974e-2, 4.1748583e-1, 3.452523e-1,
              4.3456602e-1, 9.0881556e-1, 4.9770954e-3, 4.6111695e-2,
              -1.4093855e-1, 1.810358e-2, -7.328656e-2, -4.288555e-3,
              2.8178386e-2, -2.789958e-2
            ],
            "split_indices": [
              94, 211, 214, 84, 231, 0, 0, 228, 5, 60, 227, 0, 0, 0, 0, 0, 0, 0,
              0
            ],
            "split_type": [
              0, 0, 0, 0, 0, 0, 0, 0, 0, 0, 0, 0, 0, 0, 0, 0, 0, 0, 0
            ],
            "sum_hessian": [
              8.698502e2, 8.522642e2, 1.7586018e1, 4.844823e2, 3.6778192e2,
              1.6572191e1, 1.0138265, 4.7732193e2, 7.16036, 1.106055e2,
              2.5717642e2, 3.880507e2, 8.927124e1, 6.021472, 1.138888,
              8.730902e1, 2.3296484e1, 1.423836e2, 1.14792816e2
            ],
            "tree_param": {
              "num_deleted": "0",
              "num_feature": "252",
              "num_nodes": "19",
              "size_leaf_vector": "1"
            }
          },
          {
            "base_weights": [
              -5.688449e-4, 2.2884872e-2, -8.9733744e-1, -1.0308017e-2,
              7.003365e-1, -1.0984663, 7.397849e-2, 3.4229603e-2, -7.6400584e-1,
              -5.9113514e-1, 1.0545421, 3.4657165e-2, -1.2267424, -5.732824e-4,
              5.5404954e-2, -9.4363324e-2, 6.8963408e-3, -9.818712e-2,
              6.5018244e-2, 1.0292273e-1, -8.032069e-2, 9.101571e-3,
              -1.05448596e-1
            ],
            "categories": [],
            "categories_nodes": [],
            "categories_segments": [],
            "categories_sizes": [],
            "default_left": [
              0, 0, 0, 0, 0, 0, 0, 0, 0, 0, 0, 0, 0, 0, 0, 0, 0, 0, 0, 0, 0, 0,
              0
            ],
            "id": 27,
            "left_children": [
              1, 3, 5, 7, 9, 11, -1, 13, 15, 17, 19, -1, 21, -1, -1, -1, -1, -1,
              -1, -1, -1, -1, -1
            ],
            "loss_changes": [
              1.8231182e1, 1.900251e1, 9.111971, 2.7090889e1, 1.8679102e1,
              4.53039, 0, 2.077758e1, 1.600999e1, 9.157454, 1.6256027e1, 0,
              2.482067, 0, 0, 0, 0, 0, 0, 0, 0, 0, 0
            ],
            "parents": [
              2147483647, 0, 0, 1, 1, 2, 2, 3, 3, 4, 4, 5, 5, 7, 7, 8, 8, 9, 9,
              10, 10, 12, 12
            ],
            "right_children": [
              2, 4, 6, 8, 10, 12, -1, 14, 16, 18, 20, -1, 22, -1, -1, -1, -1,
              -1, -1, -1, -1, -1, -1
            ],
            "split_conditions": [
              1, 3.8718855e-1, 5.946128e-1, 9.8205256e-1, 5.347735e-1,
              3.6126688e-2, 7.397849e-2, 9.1819084e-1, 9.0100384e-1,
              3.2641295e-1, 3.8744372e-1, 3.4657165e-2, 6.5825544e-2,
              -5.732824e-4, 5.5404954e-2, -9.4363324e-2, 6.8963408e-3,
              -9.818712e-2, 6.5018244e-2, 1.0292273e-1, -8.032069e-2,
              9.101571e-3, -1.05448596e-1
            ],
            "split_indices": [
              217, 127, 28, 247, 230, 114, 0, 239, 171, 91, 124, 0, 38, 0, 0, 0,
              0, 0, 0, 0, 0, 0, 0
            ],
            "split_type": [
              0, 0, 0, 0, 0, 0, 0, 0, 0, 0, 0, 0, 0, 0, 0, 0, 0, 0, 0, 0, 0, 0,
              0
            ],
            "sum_hessian": [
              8.648313e2, 8.43739e2, 2.1092321e1, 8.052683e2, 3.8470695e1,
              1.9353157e1, 1.7391646, 7.612396e2, 4.4028694e1, 8.136228,
              3.0334469e1, 1.3118465, 1.8041311e1, 7.1713556e2, 4.4104042e1,
              2.9314186e1, 1.471451e1, 5.6854377, 2.45079, 2.759916e1,
              2.7353091, 1.1355312, 1.6905779e1
            ],
            "tree_param": {
              "num_deleted": "0",
              "num_feature": "252",
              "num_nodes": "23",
              "size_leaf_vector": "1"
            }
          },
          {
            "base_weights": [
              -8.903648e-3, 2.4066145e-2, -6.593855e-1, -2.2290807e-2,
              7.1723515e-1, -8.616857e-1, 9.5138353e-1, 3.043417e-2,
              -6.6290367e-1, 9.8250985e-1, -1.0410066, 8.055951e-1, -1.0918555,
              8.69873e-2, 1.599193e-2, -5.6612752e-3, 2.568793e-2, -9.387592e-2,
              3.1148575e-2, 8.807084e-2, -1.3407634e-3, -1.11592e-1,
              4.5366116e-2, -1.8068379e-2, 9.485532e-2, -1.2145726e-1,
              -3.876959e-2
            ],
            "categories": [],
            "categories_nodes": [],
            "categories_segments": [],
            "categories_sizes": [],
            "default_left": [
              0, 0, 0, 0, 0, 0, 0, 0, 0, 0, 0, 0, 0, 0, 0, 0, 0, 0, 0, 0, 0, 0,
              0, 0, 0, 0, 0
            ],
            "id": 28,
            "left_children": [
              1, 3, 5, 7, 9, 11, 13, 15, 17, 19, 21, 23, 25, -1, -1, -1, -1, -1,
              -1, -1, -1, -1, -1, -1, -1, -1, -1
            ],
            "loss_changes": [
              1.8538e1, 2.6460188e1, 1.4407442e1, 2.6106916e1, 2.509777e1,
              1.5297405e1, 3.0655766e-1, 2.1041805e1, 3.203322e1, 5.3845863,
              4.918229, 2.2801363, 7.921177, 0, 0, 0, 0, 0, 0, 0, 0, 0, 0, 0, 0,
              0, 0
            ],
            "parents": [
              2147483647, 0, 0, 1, 1, 2, 2, 3, 3, 4, 4, 5, 5, 6, 6, 7, 7, 8, 8,
              9, 9, 10, 10, 11, 11, 12, 12
            ],
            "right_children": [
              2, 4, 6, 8, 10, 12, 14, 16, 18, 20, 22, 24, 26, -1, -1, -1, -1,
              -1, -1, -1, -1, -1, -1, -1, -1, -1, -1
            ],
            "split_conditions": [
              9.8866624e-1, 7.564445e-1, 4.255968e-1, 9.353218e-1, 9.70678e-1,
              8.053788e-1, 1.8505909e-1, 5.6858474e-1, 3.740335e-1, 8.48562e-1,
              7.6111615e-1, 1.0758432e-1, 3.1771615e-1, 8.69873e-2, 1.599193e-2,
              -5.6612752e-3, 2.568793e-2, -9.387592e-2, 3.1148575e-2,
              8.807084e-2, -1.3407634e-3, -1.11592e-1, 4.5366116e-2,
              -1.8068379e-2, 9.485532e-2, -1.2145726e-1, -3.876959e-2
            ],
            "split_indices": [
              245, 29, 163, 227, 224, 247, 88, 231, 117, 8, 3, 143, 129, 0, 0,
              0, 0, 0, 0, 0, 0, 0, 0, 0, 0, 0, 0
            ],
            "split_type": [
              0, 0, 0, 0, 0, 0, 0, 0, 0, 0, 0, 0, 0, 0, 0, 0, 0, 0, 0, 0, 0, 0,
              0, 0, 0, 0, 0
            ],
            "sum_hessian": [
              8.626535e2, 8.2195557e2, 4.0697964e1, 7.713387e2, 5.0616848e1,
              3.657009e1, 4.127875, 7.135622e2, 5.777651e1, 4.4364548e1,
              6.2523026, 4.132865, 3.2437225e1, 3.1170218, 1.0108528,
              5.298442e2, 1.8371802e2, 3.882424e1, 1.8952265e1, 3.9574745e1,
              4.7898035, 5.233194, 1.0191085, 1.2221557, 2.9107091, 1.817544e1,
              1.42617855e1
            ],
            "tree_param": {
              "num_deleted": "0",
              "num_feature": "252",
              "num_nodes": "27",
              "size_leaf_vector": "1"
            }
          },
          {
            "base_weights": [
              1.0666923e-3, 1.3898653e-1, -1.5630554e-1, 5.5007603e-2,
              5.712177e-1, -6.367444e-1, 5.975611e-2, 1.0513358e-1, -1.0012823,
              8.6794657e-1, -1.1992459, -8.9633566e-1, -1.327816e-1,
              7.706294e-1, -8.408405e-2, 1.5480194e-3, 5.481472e-2, 6.387042e-2,
              -9.568072e-2, -1.0362554e-1, 8.1997104e-2, -1.2873036e-1,
              3.956735e-2, -5.5429167e-3, -8.730707e-2, -9.462574e-2,
              7.327625e-3, 4.0636642e-4, 9.284085e-2, -1.8262593e-2,
              4.0845394e-2
            ],
            "categories": [],
            "categories_nodes": [],
            "categories_segments": [],
            "categories_sizes": [],
            "default_left": [
              0, 0, 0, 0, 0, 0, 0, 0, 0, 0, 0, 0, 0, 0, 0, 0, 0, 0, 0, 0, 0, 0,
              0, 0, 0, 0, 0, 0, 0, 0, 0
            ],
            "id": 29,
            "left_children": [
              1, 3, 5, 7, 9, 11, 13, 15, 17, 19, 21, 23, 25, 27, 29, -1, -1, -1,
              -1, -1, -1, -1, -1, -1, -1, -1, -1, -1, -1, -1, -1
            ],
            "loss_changes": [
              1.8649002e1, 1.6589672e1, 4.1695717e1, 2.0464457e1, 4.011976e1,
              1.6178574e1, 2.8463606e1, 1.8297958e1, 7.093027, 2.3164806e1,
              8.50058, 1.3157005e1, 1.0363504e1, 1.3974079e1, 2.000103e1, 0, 0,
              0, 0, 0, 0, 0, 0, 0, 0, 0, 0, 0, 0, 0, 0
            ],
            "parents": [
              2147483647, 0, 0, 1, 1, 2, 2, 3, 3, 4, 4, 5, 5, 6, 6, 7, 7, 8, 8,
              9, 9, 10, 10, 11, 11, 12, 12, 13, 13, 14, 14
            ],
            "right_children": [
              2, 4, 6, 8, 10, 12, 14, 16, 18, 20, 22, 24, 26, 28, 30, -1, -1,
              -1, -1, -1, -1, -1, -1, -1, -1, -1, -1, -1, -1, -1, -1
            ],
            "split_conditions": [
              5.3242475e-1, 4.1748583e-1, 5.6858474e-1, 3.841588e-1,
              8.2179755e-1, 3.5330698e-1, 6.63444e-1, 3.9639875e-1,
              2.5991762e-1, 1.5456536e-1, 1.8352185e-1, 3.120845e-1,
              2.781512e-1, 1.5146112e-1, 9.1242796e-1, 1.5480194e-3,
              5.481472e-2, 6.387042e-2, -9.568072e-2, -1.0362554e-1,
              8.1997104e-2, -1.2873036e-1, 3.956735e-2, -5.5429167e-3,
              -8.730707e-2, -9.462574e-2, 7.327625e-3, 4.0636642e-4,
              9.284085e-2, -1.8262593e-2, 4.0845394e-2
            ],
            "split_indices": [
              211, 228, 231, 226, 201, 16, 227, 9, 10, 217, 161, 3, 28, 67, 194,
              0, 0, 0, 0, 0, 0, 0, 0, 0, 0, 0, 0, 0, 0, 0, 0
            ],
            "split_type": [
              0, 0, 0, 0, 0, 0, 0, 0, 0, 0, 0, 0, 0, 0, 0, 0, 0, 0, 0, 0, 0, 0,
              0, 0, 0, 0, 0, 0, 0, 0, 0
            ],
            "sum_hessian": [
              8.5721204e2, 4.5690274e2, 4.0030927e2, 3.8351602e2, 7.338671e1,
              1.2357608e2, 2.767332e2, 3.6700058e2, 1.651545e1, 6.328923e1,
              1.0097481e1, 8.10491e1, 4.2526978e1, 4.5838238e1, 2.3089496e2,
              3.2061792e2, 4.638265e1, 1.3098474, 1.5205603e1, 3.7922978,
              5.949693e1, 8.170381, 1.9271003, 1.5722381e1, 6.532672e1,
              6.7353363, 3.579164e1, 1.5809191e1, 3.0029047e1, 1.8632797e2,
              4.4566975e1
            ],
            "tree_param": {
              "num_deleted": "0",
              "num_feature": "252",
              "num_nodes": "31",
              "size_leaf_vector": "1"
            }
          },
          {
            "base_weights": [
              -1.0889559e-2, 2.2541584e-2, -5.470296e-1, 5.304597e-2,
              -5.4381174e-1, -8.0810195e-1, 4.9303454e-1, -4.2494833e-2,
              3.1778798e-1, 1.3767922e-1, -1.0919534, 1.2029685e-1, -1.2011522,
              -6.370944e-1, 1.00091815e-1, 1.14888465e-2, -2.9445559e-2,
              3.3848956e-2, -5.484784e-2, -8.812894e-2, 6.2018536e-2,
              -1.1288218e-1, 6.8969585e-2, -7.424796e-2, 4.7108483e-2,
              4.7143746e-2, -1.0616723e-1, -8.871446e-2, 4.712856e-2
            ],
            "categories": [],
            "categories_nodes": [],
            "categories_segments": [],
            "categories_sizes": [],
            "default_left": [
              0, 0, 0, 0, 0, 0, 0, 0, 0, 0, 0, 0, 0, 0, 0, 0, 0, 0, 0, 0, 0, 0,
              0, 0, 0, 0, 0, 0, 0
            ],
            "id": 30,
            "left_children": [
              1, 3, 5, 7, 9, 11, 13, 15, 17, 19, 21, 23, 25, 27, -1, -1, -1, -1,
              -1, -1, -1, -1, -1, -1, -1, -1, -1, -1, -1
            ],
            "loss_changes": [
              1.5284341e1, 1.390172e1, 1.3988888e1, 1.9309359e1, 1.5514202e1,
              1.4882116e1, 9.933474, 3.4072052e1, 2.1681824e1, 1.6041843e1,
